0.04466595
0.010500402
0.019340165
0.043026887
-0.007358914
0.047682174
0.018916499
0.044433106
0.031228662
0.021890854
0.03616948
0.028025651
0.03930466
0.012308263
0.023625175
0.023047121
0.031440273
0.026121126
0.057483952
0.037377633
0.012963695
0.004693838
0.020277586
0.010858901
0.014819288
0.027973864
0.04755397
0.04567573
-0.008648666
0.048403714
0.036241002
0.060140695
0.049837243
-0.0062768566
-0.0077002095
0.008983099
0.05727346
0.019645726
0.040546767
0.053182602
0.14341134
0.04691743
0.05105761
0.057792228
0.08904689
0.08401791
0.00563033
0.036073416
0.015437774
0.022172539
-0.008131973
0.009234767
0.045643494
0.01758255
0.061837062
0.05489187
0.024591543
0.0024252147
0.04801222
0.04325366
0.005347524
0.049144525
0.018824609
0.025947062
-0.016307946
-0.00081224384
0.009131346
-0.001767752
-0.028896302
-0.052160453
-0.06352107
-0.1200169
-0.06698652
-0.0887057
-0.04905484
-0.029815981
-0.0027777397
0.0275613
-0.012441444
0.04162351
0.00051542936
-0.0006872455
0.028435756
0.020177875
0.047239553
0.005580467
-0.0054857465
0.06668851
0.012326073
-0.040997885
-0.08107413
-0.13469566
0.01540244
-0.037602097
-0.029189935
0.037066266
-0.008722697
0.10909294
0.09014792
-0.010121063
0.060994823
0.028670242
-0.097392045
-0.10011673
-0.04801942
-0.15414204
-0.047327913
-0.017697921
0.033894423
0.032270744
0.03618909
0.052940752
0.060128525
0.0025645515
0.030720092
0.05176549
0.03686538
-0.07568958
-0.13150379
-0.04006186
0.011428052
0.085191526
0.033364523
0.07409756
-0.028260767
0.052095603
-0.050121445
0.046033606
-0.040207382
0.09650974
-0.02187278
0.011419398
0.013697963
-0.05297307
0.013382411
0.017479671
-0.08413084
-0.025221689
-0.0035886655
-0.0038043405
0.009898899
0.022105059
0.0038495476
0.029034765
-0.0116151385
-0.17803322
-0.022285486
-0.00037007907
0.06654617
0.010886422
0.067857504
0.047469202
-0.062204648
0.052467868
0.069439
0.025667792
-0.0044158148
0.04333969
0.10500823
0.026522962
-0.07046272
-0.016010718
0.016285138
-0.0799615
-0.10809494
-0.08100666
-0.022097336
0.0061056637
-0.0021974875
0.009982558
0.014022618
0.034049794
-0.05823876
-0.025920149
0.018749569
0.06297814
-0.030473411
-0.16106582
-0.04322747
-0.020584257
-0.06994521
0.09057485
0.06482402
-0.008603046
0.0196337
0.055722564
0.061202005
0.0068882047
0.008683644
0.11396023
0.15326254
-0.03582092
-0.23938003
-0.23882143
-0.07979675
-0.029972387
0.043027256
0.04854595
0.055701897
-0.011915126
-0.07047615
-0.020925011
0.07042675
-0.038857356
-0.10551839
0.02446052
0.015922653
0.051374152
0.014742437
0.05853876
0.00080974936
-0.00063648593
-0.023727745
0.11073743
0.07988425
0.06416393
0.03986579
-0.031251848
-0.038924694
0.09602925
-0.034437973
-0.23154688
-0.16140032
-0.0073359627
0.064927116
0.00025857473
0.018375145
0.060816754
-0.036763486
0.0024006127
-0.031558316
-0.04694041
0.035977878
0.06327049
-0.0076494385
-0.022896707
0.041140236
0.012156903
0.07187784
0.07190837
0.14697704
0.105790414
0.050786424
-0.008468228
0.0664231
0.059097778
0.009081021
0.10798609
0.06379901
-0.2767676
-0.09070357
0.00458889
0.027857253
0.041754305
0.04092698
0.050306976
0.022792865
-0.0006684284
-0.06292932
-0.062042877
-0.036864642
0.03629446
0.042711813
-0.010667767
0.0041127773
0.082203716
0.0292076
-0.09983392
0.06621103
0.054177146
0.086566426
0.10500644
0.07455752
-0.035667323
-0.076039225
0.1348389
0.17650667
-0.22905663
-0.11361138
0.025984693
0.018938672
0.037747737
0.107379794
0.069372594
0.0063032117
0.07531226
-0.053452685
-0.019998234
-0.03705038
0.025298819
-0.052064408
0.016937654
0.026133254
0.040891
0.029368555
-0.057650987
0.022679755
0.1474528
0.11094868
-0.009769923
0.067556694
-0.0039454843
0.09556897
0.12855722
0.14713049
-0.1875429
-0.13234816
0.057052776
0.03307172
0.07032344
0.019410204
0.044408783
-0.15272151
-0.104767986
0.05777918
0.002307432
-7.1796014e-05
-0.057665575
0.00013353126
0.019949423
-0.112883575
-0.0375588
-0.15169157
-0.25697982
-0.18059978
0.007083153
-0.08180994
-0.0038744078
0.062418673
0.12199949
0.11127595
0.06082002
0.12151202
-0.15553677
-0.07289213
0.015353461
0.006287945
0.0061711087
0.034523975
0.03873649
-0.06708422
-0.025647797
0.08824175
-0.0027713412
-0.039287917
-0.039581757
-0.035328023
-0.023240656
0.023094773
-0.014570948
-0.19149344
-0.29321048
-0.20137423
-0.033484478
-0.017779231
0.016984921
0.048247606
0.010163827
0.05931078
0.11455265
0.24529728
-0.060499392
-0.032838106
0.02062079
0.040936735
0.028830288
-0.0066299317
0.026470326
0.08614971
-0.015749158
0.07744235
0.062021732
0.032332234
0.019231718
0.07134167
0.017801978
0.01111703
-0.15721738
-0.23958457
-0.28890392
-0.18087798
-0.066878416
0.027824318
-0.0472152
-0.123650864
-0.026696343
0.036508147
0.1090058
0.18524773
0.064967066
0.0071868454
0.05141589
0.031342678
0.009284319
0.061155353
-0.09050007
-0.033751022
0.09015982
0.07878621
0.1598113
0.040912606
0.07810034
-0.0062141656
0.046947613
0.109118156
-0.043775566
-0.28898934
-0.23855013
-0.2895132
-0.056047507
-0.048399247
-0.04344711
0.03130876
0.02736746
0.031784896
0.10254926
0.16122347
0.08828099
-0.009479962
0.012199797
-0.0031666078
0.0588168
0.031303134
-0.07886273
0.06850841
0.11705282
-0.084618166
0.109778345
0.07557196
0.06408006
0.090528436
-0.023648359
0.04042412
-0.1535997
-0.34868243
-0.22959611
-0.15469068
-0.109188534
-0.017875742
-0.028702976
0.05127093
0.042303894
0.01144628
0.10180075
0.1836874
0.040322468
-0.019983247
0.045858905
0.008582518
-0.0053613363
0.031267058
-0.031480007
0.091079086
0.124929056
0.04316942
0.10135214
0.099492684
0.08225671
0.08666235
0.002378195
-0.07241977
-0.3680657
-0.23065539
-0.07977149
-0.10047533
-0.00014804515
-0.018480066
-0.007884339
0.07335756
0.004158044
0.048947435
0.004648521
0.017701145
-0.065638535
-0.010306431
0.056044765
-0.007939944
0.03816413
0.018105919
-0.030294217
0.055399086
0.075945966
0.06380882
0.04560102
0.031843886
0.071323484
0.12014482
0.05601322
-0.015047815
-0.2340332
-0.19706465
-0.12160719
-0.018728318
0.0386637
-0.020805033
0.027435578
0.07974098
-0.017286435
0.033960596
-0.0040637143
-0.032563448
-0.034588348
-0.023648812
0.04542669
0.019422237
0.0051056985
-0.003102071
-0.091003396
-0.009338461
-0.021432905
-0.0009483659
0.012669756
0.051024567
0.12502113
0.14081252
0.021135367
-0.11371292
-0.2369571
-0.13737766
-0.029402608
-0.022209821
-0.01944291
-0.010790135
-0.04467368
-0.06837601
-0.03367197
0.07785593
0.027111
-0.0072033633
-0.031677112
0.020838227
0.027662247
0.042115908
0.046989143
0.016125653
-0.06739246
-0.04237427
0.0034378497
0.03697622
0.07229198
0.068830505
-0.016934816
0.051049117
0.09133464
0.071632005
-0.039076272
-0.10226556
-0.046817064
-0.09480673
0.022100257
0.016147057
-0.075777814
0.028796969
-0.01304805
0.09195438
-0.026826106
0.059689086
-0.039379932
-0.002990575
0.0020977159
0.010518304
0.039240777
0.0089538535
-0.057423867
0.059931874
0.067583375
0.01166094
-0.016493795
0.06882694
0.044211704
0.12516847
0.12425413
0.15553561
0.05954194
-0.022914838
-0.025731867
-0.044937506
-0.0012808313
-0.024016842
-0.07056352
-0.028106457
0.01529677
0.05780256
-0.07870256
-0.038510673
-0.037676
0.0062046214
0.048653316
0.04257516
0.054070275
-0.012639584
0.020500083
-0.014366517
0.028519602
-0.011597792
0.031785622
-0.039382957
-0.027734866
0.0486349
0.11288932
0.10207037
0.0012893025
-0.008688756
-0.0025340202
-0.018914724
-0.124149546
-0.077167496
-0.09661929
-0.085252374
0.0076962914
-0.016123686
-0.055236485
-0.08442478
0.010037523
0.07131371
0.050392132
0.039337747
0.042515077
0.051192842
-0.01036657
-0.21640985
-0.020900644
0.047059532
-0.028234776
0.045643464
0.0951769
0.043320432
0.05022086
0.028889623
0.17403068
0.058174763
0.036275387
0.018162234
0.017445132
-0.07574964
-0.015122685
-0.0412213
-0.06273633
0.05136891
-0.003789197
-0.078211576
-0.0030730946
0.057572156
0.05530664
0.04901592
0.042070206
-0.0023248715
0.026128026
-0.24537021
-0.09717679
-0.0069151744
0.08223502
-0.0040451917
0.07850463
0.11348607
0.113104425
0.03425511
0.09853743
0.05746952
0.05333074
-0.045897193
0.082651734
-0.12638214
-0.157664
-0.14771037
-0.094010614
0.019475522
-0.060436897
-0.097282715
-0.01296139
0.041046254
0.022258583
-0.00682254
0.032885734
0.023470378
0.037892524
-0.024078721
-0.03299188
-0.08455296
-0.14014652
-0.03626029
0.019052934
0.020893225
-0.021481201
0.13445678
0.06795609
0.07363252
0.022887822
-0.04637708
0.00750571
-0.059458572
-0.21519575
-0.26609534
-0.19874735
-0.11748718
-0.06253111
0.0316121
0.012167697
0.05127972
0.05140358
0.0034863781
0.0054434408
0.0135690635
0.047083776
0.023004971
-0.017918527
-0.10077056
-0.12354036
-0.18541163
-0.26360223
-0.31960014
-0.23643188
-0.30239156
-0.3139546
-0.3858269
-0.3447183
-0.23180644
-0.29208624
-0.28950632
-0.16004927
-0.1338608
-0.11001378
-0.04308536
-0.027777534
0.038578138
0.049993902
0.036206044
0.012458799
0.028659066
0.012543935
0.059887078
0.060724646
0.021657022
-0.0050581656
0.015452249
-0.014710144
-0.016324991
-0.09015863
-0.041720726
-0.05161688
-0.048272636
-0.089380294
-0.08012576
-0.053641733
-0.067464076
-0.0682166
-0.027323883
0.040971003
-0.007858299
-0.050054677
0.007992322
0.05129626
0.04487419
0.00057630136
0.013799364
0.054557215
0.053491417
0.049052216
0.011336789
0.01919066
-0.0003444802
0.0055076396
0.05258467
-0.0048042387
0.016031642
0.03287243
0.0040220586
0.03324071
0.018209288
0.036661
-0.0069389045
0.026110327
-0.009466984
0.045553394
0.057864398
0.011915428
0.028836729
-0.0069365874
-0.041204218
-0.0019029126
0.009249731
0.033043027
0.022170005
0.02876797
0.020046176
0.024977272
0.016496532
0.021745715
0.07732301
0.060684074
0.013354411
0.0414544
0.05028158
0.06649459
0.0805386
0.056039434
0.07256671
0.03469118
0.04624767
0.025855651
0.055642813
0.08038149
0.069843054
0.08295384
0.031322666
0.042946603
0.054782223
0.076128595
0.01458506
0.029875455
0.052596036
0.02677218
0.06075679
0.044980407
0.03816063
0.066569
0.072939046
0.082154006
0.06358819
0.046287235
0.06930715
0.07004588
0.026425743
0.06301338
0.05099117
0.0312538
0.05118924
0.053981867
-0.005753893
0.028245483
0.058971327
0.072998874
0.04918588
0.012175858
0.06597931
0.0366081
0.07930991
0.012905092
0.039059274
0.0751124
0.0628655
0.029597003
0.016489865
0.047031667
0.061210707
0.017745499
0.01742708
0.043701876
-0.0034794146
-0.009345773
-0.040746246
-0.01630358
0.018861283
0.1713065
0.08160047
0.20975725
0.13051762
0.04224597
0.0012124375
0.038133502
0.055048767
0.030403288
0.023276413
0.07131276
0.039025977
0.06587442
0.036344234
0.017534768
0.05525915
0.06965418
0.014385612
0.051560014
0.054404642
0.043463282
0.041723598
0.009945857
-0.05664167
-0.05937688
-0.15331575
-0.24128148
-0.032147273
-0.005445449
-0.102252126
-0.0271469
0.05741487
-0.07524571
-0.13211122
-0.06562284
-0.11047483
-0.097570166
-0.0722109
-0.016833646
-0.009460625
0.038404647
0.003676744
0.027503097
0.030479955
0.076800376
0.044904478
0.048096783
0.010605692
0.07996891
0.05523705
-0.008890994
0.0807608
-0.062064707
-0.009777411
-0.064306825
-0.07281695
0.08447311
-0.008491071
-0.010168349
0.010450887
-0.024718983
-0.10549032
0.07754077
0.020065643
-0.03724522
-0.085368335
-0.07611699
-0.19934523
-0.09182073
-0.003497781
0.06325253
0.053047203
0.01414618
0.059651155
0.07298104
0.07611544
0.18964985
0.12866282
-0.020471469
-0.16578373
-0.13469842
-0.123243436
-0.1469682
-0.15613809
-0.06323986
-0.02976763
0.053360492
-0.09319948
-0.10970468
-0.042142928
-0.04128301
0.006604508
0.11374463
0.068422206
0.04339566
-0.053806372
-0.14651035
0.033468354
0.012429027
0.048910834
0.08215106
-0.018909719
0.017576795
0.0903616
0.044607874
0.0072202436
-0.11022617
-0.13356954
-0.16199672
-0.07804878
-0.021660086
-0.099388875
-0.088949874
-0.073303185
-0.13761307
-0.08941718
-0.13180055
-0.01041289
-0.10255746
-0.005463403
-0.0017666024
-0.003954043
0.003080153
-0.013855077
-0.11015079
0.038438648
0.06600112
0.041727804
0.06202009
-0.0114873275
0.03892323
0.01248729
-0.12114908
-0.20614341
-0.042215634
-0.21985906
-0.07329974
-0.03604198
-0.059167508
0.022963839
-0.086068235
-0.040041413
-0.109005585
-0.09249004
-0.08889952
-0.08520426
0.014504885
0.06383723
-0.0022749237
-0.03575254
-0.074699156
-0.22800101
-0.13140884
0.048019987
0.0245113
0.041384276
0.017765626
0.03146726
0.06895219
0.059988886
-0.085017756
-0.18952718
-0.06507805
-0.1314753
-0.20776543
-0.06854076
-0.12824151
-0.030805437
0.018315477
0.00276451
-0.013806035
-0.1018989
0.03874969
-0.05055583
-0.031926695
-0.10835046
-0.10152355
-0.09273361
-0.24214779
-0.30620816
-0.15874638
0.0449227
0.035019245
0.01899403
0.03896004
-0.0042476906
0.036649242
-0.05978865
-0.17814024
-0.18096249
0.023611365
-0.005140515
-0.08486318
-0.033628788
0.0058273724
-0.018307947
0.007955768
0.037611853
0.13322714
0.05200267
-0.024353685
-0.04292441
-0.100092635
-0.13149758
-0.06799814
-0.12834014
-0.21026367
-0.17796865
-0.10001336
-0.010352838
0.04509569
0.014013855
0.043583184
0.030832076
-0.04093781
-0.09110151
-0.1970079
-0.24845183
-0.12136665
-0.06376425
-0.10113467
-0.0070123854
0.02706594
-0.019462746
0.103226736
0.15285154
0.23288736
0.10698906
0.0126160085
-0.0768185
-0.052519318
-0.15788814
-0.012761314
-0.17806941
-0.23985997
-0.22056796
-0.015470085
0.029137725
0.058781832
0.020206809
0.02101459
0.07547682
0.0037588412
-0.04691438
-0.10813245
-0.25605765
-0.19684844
-0.11513556
-0.11922462
-0.09599203
-0.04179505
-0.076301165
0.086801685
0.19822477
0.2126122
0.07434911
-0.023932368
-0.008557488
-0.060766734
-0.0765881
-0.056984067
-0.10866324
-0.07504379
-0.15371196
-0.068107724
-2.8060049e-05
0.06019584
0.07357738
0.075792566
0.06939245
0.053515952
0.042757303
-0.04939431
-0.05288146
-0.026209353
-0.11154204
-0.035331097
-0.13021876
-0.117169835
-0.011226434
0.070680656
0.22918077
0.13723238
0.05350693
0.017030193
0.01637434
-0.11558682
-0.103942715
0.016616512
0.008202514
-0.018559007
-0.026953952
-0.027446125
-0.018770505
0.03431947
0.045120362
0.018013397
0.016362345
0.059869766
0.058619283
-0.017568845
-0.00527543
-0.07765585
0.073514216
-0.025020601
-0.2939721
-0.21938616
-0.015545923
0.068010226
0.1802496
0.105302624
0.023018025
0.1324725
-0.119113445
-0.18451011
-0.10290937
-0.07403805
-0.08618174
-0.10896663
-0.063490845
-0.048125904
0.00054310035
0.027229588
0.06209007
0.08043887
0.042930298
0.04367831
0.05071606
0.04452221
-0.044969212
-0.1146373
0.038974497
-0.0804307
-0.2817705
-0.18701394
0.021517185
0.06579331
0.16357668
0.13855572
0.041602876
-0.027380494
-0.17178689
-0.16493851
-0.0700417
-0.08416383
-0.051288687
-0.031083943
0.021016102
0.06015822
0.06515211
0.058755558
0.05566889
0.0138401305
0.041146215
0.05942663
0.016294478
-0.10803009
-0.11044459
-0.047444835
0.026893998
-0.11349552
-0.20204975
-0.02623998
0.06484606
0.104859166
0.19198589
0.005467893
0.11806946
-0.14383692
-0.23209862
-0.26908946
-0.19001879
-0.12169249
-0.082540855
-0.06145312
-0.024869185
0.0005916804
0.06358409
0.06965389
0.07722989
0.02781165
0.07965517
0.033415213
0.022570338
-0.08937737
-0.15901554
-0.13106382
-0.06525867
0.006751594
-0.05961065
-0.0698717
-0.06140607
0.08680659
0.21358144
-0.032334644
0.017228113
-0.33068275
-0.19662814
-0.19956481
-0.09159959
-0.09879252
-0.08557448
-0.09432948
-0.013418864
-0.04082612
0.025595132
0.05567104
0.057662882
0.047654014
0.0319898
0.01832664
0.046584792
-0.1428524
-0.20302694
-0.1360579
-0.033214282
-0.087079234
0.0017613802
-0.094747365
0.01754262
0.13428499
0.15587792
-0.031878386
-0.12331602
-0.3034581
-0.10387039
-0.08902652
-0.06512272
-0.044500723
0.0038527325
-0.0413467
0.0060540326
-0.08664041
0.055348612
0.052106142
0.046907924
0.052554887
0.070396975
0.0422081
-0.00792458
-0.22661231
-0.39729938
-0.16140994
-0.046267595
-0.02097735
-0.07595042
-0.08521899
-0.026966687
0.048103604
0.082696274
-0.08636688
-0.1785024
-0.059580304
0.033955522
-0.00317541
0.037673477
0.028875042
-0.05131588
-0.06182253
0.03140908
0.084969826
0.061310686
0.058615725
0.047632083
0.06675633
0.04711016
-0.0077521466
-0.12843786
-0.38305596
-0.15334795
0.050379314
-0.053297676
0.041222442
-0.04262095
-0.074172445
-0.042951066
0.00863696
-0.05461463
0.0017333567
0.0643644
-0.034703437
0.02153365
0.09728633
0.032038525
-0.04781213
-0.06040076
0.06572613
0.11470656
0.15842351
0.027584925
0.043287314
0.027732303
0.024187647
0.011979088
0.007579036
-0.0567548
-0.32718602
-0.027718134
-0.047641076
0.035661533
0.01423871
0.09174215
0.051192842
0.04118357
-0.0013213897
-0.006179616
-0.022130169
0.11315868
0.117523625
0.1490972
0.12850752
0.037398275
-0.0045493487
0.023624195
0.014890003
0.1152434
0.067114465
0.04116068
0.034488264
0.023258891
0.04859249
0.053183597
0.12902693
0.11174022
0.18687642
0.11039508
0.097160056
0.064872645
0.010883062
0.07803716
-0.005533379
-0.019998126
-0.06589851
0.050306473
0.070335105
-0.013144583
-0.024408638
0.12717395
0.008013377
0.12076279
0.15834585
-0.16498332
-0.06933287
0.11013851
0.10556302
0.035799254
0.04989001
0.041752767
0.031121569
0.005507882
0.026855994
0.058885366
0.375505
0.16164374
0.008012594
-0.00495447
0.029137641
-0.062458247
-0.12968259
-0.21472692
-0.14558199
-0.045233045
-0.014054357
-0.024853263
0.08358527
0.16859582
0.09478589
0.20584853
0.02065716
-0.123065494
-0.011742945
0.07753817
0.09754508
0.050707612
0.07099323
0.054863967
0.0787042
0.054870304
-0.05475188
-0.090343095
0.14046797
0.10993319
-0.010037193
0.019076083
0.011833335
-0.039435104
-0.058169696
0.096599415
-0.004777636
-0.07168365
0.043836392
0.042511564
0.13786192
-0.076429576
0.054678444
-0.04177598
-0.11759465
-0.07033558
-0.03310443
0.035189953
0.039533168
0.057884518
0.046795893
0.065822385
0.017144747
0.036489766
-0.039807446
-0.06694631
-0.0591103
-0.048052814
-0.06428908
-0.15327856
-0.050074413
-0.08438411
-0.10664194
-0.10371229
-0.14523207
-0.123531125
-0.06962183
-0.29322004
-0.06544347
0.041667286
0.0131241
-0.03280444
-0.062089313
-0.0656888
0.020939901
0.010847679
0.08053627
0.07734594
0.011867813
0.04492628
0.041313875
0.027058726
0.015269274
-0.039938994
-0.07150798
-0.09466588
-0.14949608
-0.12219269
-0.13358451
-0.44889167
-0.39197695
-0.19374809
-0.22901613
-0.22163336
-0.28561613
-0.34697935
-0.23259056
-0.15068986
-0.13809066
-0.015634838
0.030718224
0.029503113
0.075622074
0.07088034
0.05745833
0.03420907
0.051970527
0.022841882
0.072300285
0.080773406
0.041551936
0.06947463
0.07050619
0.024091754
0.006922129
0.017911224
0.012588053
-0.09869364
-0.06578075
-0.11692145
-0.12470752
-0.10239462
-0.024664542
0.0040012533
-0.014258308
-0.018251086
-0.005359228
0.0103065455
0.015308477
0.04536627
0.057580028
0.041133806
0.053480383
0.06973385
0.06230396
0.06214287
0.0574523
0.019960871
0.025807858
0.02092874
0.07063836
0.0153463585
0.019843914
0.070327334
0.068216756
0.01006299
0.06623147
0.034548927
0.049750082
0.020854367
0.040389005
0.053586498
0.06668215
0.045624897
0.027331673
0.023885293
0.045048833
0.058483846
0.06699293
0.011825698
0.044496763
0.048678238
0.030735908
-0.010877113
-0.04852693
-0.073096454
-0.060370795
-0.037901413
-0.06562417
-0.030888854
-0.004303401
-0.037584487
-0.047844935
-0.0053996667
-0.012680648
-0.015841773
-0.03725548
-0.037148435
-0.06673296
-0.035411004
-0.004308714
-0.037158508
-0.07091752
-0.019444037
-0.0069941836
-0.009105497
-0.037362084
-0.03233697
-0.033266652
-0.053684194
-0.04425768
-0.009910349
-0.035402816
-0.0053861337
-0.06276326
-0.04427096
-0.03864341
-0.060532
-0.012745275
-0.006890025
-0.05964899
-0.010743168
-0.014530058
-0.08510642
-0.060547236
0.005642131
-0.0063511315
0.06287887
-0.045039196
-0.03010676
-0.046485644
-0.029227538
-0.01470389
-0.045065224
-0.07486369
-0.037297666
-0.041810438
-0.026093913
-0.022375204
-0.056806296
-0.05311435
-0.016534425
-0.028886816
-0.031073326
-0.023075467
-0.022150699
-0.06168481
0.008625724
0.081759885
0.027940344
0.10183715
0.08978107
0.078002855
0.01866882
0.1006453
0.044279184
-0.00093567057
-0.006899516
-0.08622721
-0.056561947
-0.042028926
-0.07521743
-0.031811476
0.016125571
-0.00584353
-0.059613492
-0.019532027
-0.006273161
-0.049913164
-0.020647625
-0.041527484
-0.02722424
-0.058964156
-0.041940525
0.04102867
0.030246433
0.22002473
0.15298562
0.15370831
0.11708456
0.19360934
0.08375738
0.047784884
0.08243278
0.054730956
-0.0703932
-0.05135265
-0.08597064
-0.038242687
-0.065341115
-0.10963506
-0.0035213025
0.009396669
-0.053052478
-0.044025615
-0.049992625
-0.038096298
-0.028154174
-0.011433954
-0.11456678
0.011972959
0.12453902
0.05267303
0.0887984
0.14810044
0.06880284
0.083761424
0.102264926
0.036787137
0.099565
0.02333483
0.036403548
0.022191083
-0.00094520574
-0.016782045
-0.052287605
-0.10648797
-0.15593444
-0.19890487
-0.124365166
-0.015928097
-0.011374447
-0.04619449
-0.04115386
-0.022358835
-0.034326114
-0.03228781
-0.0056575323
0.053753585
0.022510536
0.0031135387
0.049081136
-0.005373028
0.021826986
0.081566505
0.03375917
0.013909655
0.048461437
0.015974227
0.08311957
0.038119815
0.019801827
-0.023368692
0.041971166
-0.0043813973
-0.019309318
-0.053934194
-0.14429057
-0.05933109
-0.03543796
-0.052797668
-0.033800974
-0.07476667
-0.022240743
-0.053368982
0.07798695
0.019359859
0.034131955
0.05532474
-0.008783104
0.040986486
0.043842897
-0.012495564
-0.015597284
0.023191385
-0.0032504909
0.025210127
0.048572432
-0.025399152
-0.01201504
-0.055354543
-0.065490276
-0.043255806
-0.082547545
-0.19861422
-0.16125803
-0.076968625
-0.06767574
-0.0058720177
-0.058111876
-0.068794936
-0.019227413
0.008237692
0.16416398
0.062583126
0.10487972
-0.011124365
0.057887837
-0.011429109
-0.035377495
0.029109675
0.0014058434
0.05755427
0.017239142
-0.04960983
-0.005568805
-0.10389306
-0.033700515
-0.022163404
-0.042234547
-0.014150136
0.057368983
-0.29782385
-0.2399977
-0.07554689
-0.06483647
-0.012993408
-0.05729191
-0.005869053
-0.02403795
0.004197754
0.1820648
0.0017578295
0.0023052904
-0.006404978
0.015156731
-0.015756445
0.049793072
0.03879588
-0.06719954
-0.00604878
0.0024988225
0.0071586706
-0.04352127
-0.0059574754
-0.068410866
0.071390994
0.030935097
-0.045916792
0.020903176
-0.04034245
-0.32039848
-0.11732702
-0.018293753
-0.028991388
-0.05898526
-0.03435854
-0.077009134
0.034173984
0.07832823
0.12483325
-0.08043321
-0.02643684
-0.018032162
0.010025973
0.07236602
-0.021319767
0.0071970522
0.018429875
0.016730366
0.0699727
0.037314486
-0.0022311907
0.029579617
-0.012070736
-0.00076203
-0.07565488
-0.015014986
-0.05604826
-0.28813648
-0.0825377
-0.0657299
-0.05723427
-0.066527344
-0.019059423
-0.018909102
0.021108503
-0.044135973
0.1615555
0.13733834
-0.00069095317
-0.005999651
-0.055372454
0.0037076853
0.0148219075
0.01137696
-0.06717298
-0.016692642
-0.051722504
0.009600928
0.050351493
0.003175827
-0.03739859
0.0028356886
-0.033768106
-0.043943085
-0.08858804
-0.29743502
-0.07488694
-0.027855221
-0.017451143
-0.0045735766
-0.028021524
-0.0144573925
-0.08204365
-0.045175336
0.067665935
0.012270005
-0.1107834
-0.18371919
-0.16956355
-0.27012512
-0.2179919
-0.24745212
-0.30857262
-0.20286398
-0.16843192
-0.06212576
-0.0943162
-0.028241372
0.091357
-0.03715972
0.010514915
-0.043262914
-0.064444564
-0.087062046
0.043925706
0.006436529
-0.011664185
-0.06368541
-0.029430846
-0.07109253
-0.10809421
-0.12488839
-0.16415796
-0.31583527
-0.3441329
-0.15676318
-0.13771582
-0.2024395
-0.18363737
-0.17162418
-0.15665644
-0.15803775
-0.15374123
-0.10092862
-0.12374818
-0.074892
0.03434073
-0.034197196
0.012223671
-0.08776844
-0.15357259
0.069770746
0.16476607
0.091062084
-0.030714395
-0.050083954
-0.019874364
-0.04797736
-0.079839334
-0.3012602
-0.33906174
-0.366456
-0.29071546
-0.13650918
-0.11961556
-0.058452602
0.024198147
-0.033293255
0.041293975
0.015152442
-0.110020235
-0.050125588
-0.05192423
-0.07786431
-0.04716273
-0.0848426
0.0034900482
-0.040950954
-0.008288393
0.2769668
0.34146386
0.31447032
0.09106446
-0.0351288
-0.025140403
-0.074387714
-0.10242427
-0.18248233
-0.25913388
-0.089162074
0.028945941
-0.041617986
-0.043215808
-0.015930278
-0.009317702
-0.026073325
0.047005415
0.011792012
-0.05167898
-0.02840725
-0.09506648
-0.007944842
-0.025685968
-0.0067641214
-0.07210958
-0.044484857
0.014217826
0.099733874
0.18993859
0.2473317
0.0026877574
-0.0037066191
-0.024855312
-0.055748526
0.054694533
0.09674663
0.13325271
0.07642264
-0.003932352
-0.042277187
0.025935333
-0.009357956
-0.0014487787
-0.024980213
0.041224185
0.020654552
0.0037830283
-0.026625175
-0.042712998
-0.06740372
0.01142726
-0.09960135
-0.028977927
-0.08709099
-0.092145495
0.21548785
0.22289468
0.22418147
-0.01220744
-0.038986426
-0.07296945
-0.040694688
0.1615043
0.14823729
0.08743664
0.093950264
0.004515255
-0.07365433
0.037628427
0.047768842
0.051385928
0.071750596
0.10887023
0.030393824
0.0009184695
0.039862484
0.07890051
0.020437747
-0.0066966116
-0.06999071
0.1130841
0.056910124
0.030284086
0.16212286
0.4446007
0.3550695
0.02036601
-0.025972579
-0.07577665
-0.042099975
0.11787008
0.08490808
0.08437171
0.099134676
0.0485824
-0.004480878
0.02995075
0.1242472
0.062532626
0.10963744
0.09389582
-0.004440839
0.043791816
-0.013762059
-0.044471607
0.0005264267
0.011904296
-0.0055835466
0.024919502
0.030843537
-0.0075286436
0.07733646
0.43545827
0.22127888
-0.0014812581
-0.0664444
-0.008513854
-0.078303814
0.056230016
0.13820733
0.14433065
0.037121847
0.11422192
-0.015197642
0.0060947738
0.065174766
0.050122913
0.09673538
0.07896552
0.046224054
-0.018046837
0.051020306
0.060375527
0.017066395
0.044553574
-0.022048343
0.047354735
0.03422073
0.104284525
0.29424456
0.3227222
-0.0057277745
-0.022970354
-0.048479505
-0.023792736
-0.019619005
-0.066646695
0.047506023
0.019027079
-0.018949265
0.09501839
0.074155465
0.078617275
0.09306049
0.021527939
0.07727028
0.10214116
0.04882158
0.04911367
0.09401149
0.08554972
0.04631707
-0.036921963
0.026187526
0.04775348
0.13946241
0.09286939
0.09311489
0.31684384
0.10379728
-0.044535708
-0.05357936
-0.07508864
-0.034941673
0.0063638273
0.10366108
0.083759114
0.076210424
0.1409373
0.054084837
0.05240016
0.105243914
0.104658455
0.07181361
0.050036635
-0.00020352074
0.037001356
-0.0027116397
-0.014585583
0.011592551
0.09862609
0.06940244
0.086081676
0.08044132
0.048330266
0.14232145
0.124696136
0.038028885
-0.01782897
-0.006645349
-0.0057790056
0.057822607
0.045892064
0.022326639
0.04090934
0.022941662
0.014440692
-0.03776903
0.08441083
0.021869605
0.06884813
-0.023434073
0.015865982
0.02200151
-0.019991012
0.024020325
0.060127005
0.09062194
0.14215688
0.009692038
0.07224531
0.101003245
0.21883458
0.092704386
0.038750246
-0.012942952
-0.017099122
-0.039527733
-0.06709738
0.008324778
0.052526534
0.09392028
0.062133018
0.12499205
0.08890367
0.111070625
0.103749625
0.026232744
0.023402398
0.039912038
0.012587607
-0.02821179
-0.04730699
0.005535073
-0.0030560342
0.08319502
0.022392737
0.091342695
0.039731167
0.067917585
0.035175078
0.11686693
0.036709137
-0.05297205
-0.03822225
-0.008424124
-0.017494077
-0.015504749
-0.07123013
0.013565033
-0.005058581
-0.016561247
0.08716763
0.031278413
0.058911134
-0.0233602
0.05506187
0.04846271
-0.052217904
0.001700317
-0.029314302
0.007591338
-0.045802087
0.11746186
0.12672056
0.111031495
0.18149671
0.16368856
0.16352883
0.13503537
-0.0037429845
-0.08136638
-0.058462273
-0.027868401
-0.005356719
-0.04201256
-0.112398386
-0.1237646
-0.22094561
-0.14317831
-0.091882795
-0.055205777
-0.020618113
-0.052566182
-0.033754278
0.06501626
-0.019532498
0.10479602
-0.015796999
-0.041990664
0.046700507
0.117721766
0.011102347
0.02116901
0.1199742
-0.020434113
0.026651327
0.16233347
0.09664506
-0.012003188
-0.039255515
-0.06500312
-0.053401902
-0.044881728
-0.07982071
-0.06707851
-0.07528747
-0.066448994
-0.1603402
-0.25498766
-0.26197517
-0.23687403
-0.2546116
-0.13459642
-0.07867483
-0.0067560384
0.03640198
-0.017346725
-0.011189387
-0.14581004
-0.1489121
-0.10563259
-0.1474591
-0.13610451
-0.08147616
-0.04465665
-0.0032359888
-0.02339708
-0.033272635
-0.048918676
-0.027266746
-0.028255874
-0.06792449
-0.02190263
-0.05026039
-0.01507899
-0.08957408
-0.06432398
-0.050525706
-0.037067752
-0.10129613
-0.08466896
-0.117498025
-0.103602156
-0.06200655
-0.13595131
-0.1324075
-0.069768324
-0.04068854
-0.09401355
-0.050053414
-0.040436346
-0.006514671
-0.040314045
-0.023880292
-0.042133335
-0.0071683065
-0.042692047
-0.06003307
-0.032458875
-0.05795067
-0.030116051
-0.0143265845
-0.0672031
-0.06561232
-0.038973242
-0.041510057
-0.05165565
-0.010075281
-0.023826163
-0.052147586
-0.034768622
-0.044966094
-0.062517546
-0.02491085
-0.06360769
-0.035257906
-0.016552523
-0.07304203
-0.04030628
-0.006171447
-0.022917056
-0.05313126
-0.033425827
-0.07258032
-0.028528351
-0.0032111297
-0.0032273857
-0.034833413
-0.021314953
-0.040190104
-0.04428749
-0.03357603
-0.05506636
-0.019883769
-0.016753951
-0.043944415
-0.042413604
-0.05922396
-0.029718522
-0.020059738
-0.0003557902
-0.06791356
-0.064373106
-0.033253007
-0.001257492
-0.031964663
-0.02434955
-0.029192468
-0.038533702
-0.008773283
-0.008045965
-0.054853354
-0.05565114
-0.06203338
-0.04294829
-0.03506749
-0.004370562
-0.06882793
-0.0089195315
-0.054223195
-0.031420372
-0.035986986
-0.014174558
-0.06443904
-0.059865784
-0.034152847
-0.018375102
-0.05418874
-0.024756655
-0.04428475
-0.06767046
-0.030357882
-0.04216197
-0.01328056
-0.01079932
-0.010897039
-0.011892508
-0.061893053
-0.06852568
-0.030272506
-0.023892263
-0.06173436
-0.005072528
-0.038044564
-0.0551933
-0.009964008
-0.0040743346
-0.030242974
-0.050079323
-0.039027292
-0.058556218
0.018254016
0.036329903
-0.02379364
-0.04901138
-0.038893778
-0.09255473
-0.085222974
-0.06103291
-0.07895831
-0.03353741
-0.010927411
-0.04315163
-0.043196615
-0.0012391331
-0.02816244
-0.021805909
-0.045998532
-0.06507442
-0.028672071
-0.05540329
-0.052751116
-0.067073636
0.079315044
0.0018923199
0.06495683
0.102726266
0.058697816
0.104597546
0.16117291
0.21857092
0.05866139
0.19038698
0.13683999
0.060261082
0.10755527
0.07818745
0.105204925
0.15399966
-0.06633902
-0.1435663
-0.1282204
-0.0720059
-0.057633758
-0.030431684
-0.025714356
-0.0032911776
-0.029434683
-0.040017482
-0.035528146
0.0035229512
0.1659197
0.095378235
0.056533422
0.17651533
0.08820871
0.14457056
0.119503334
0.11233621
0.1169612
0.073996514
0.07220724
0.10693538
0.04261669
0.061266292
0.060725726
-0.0056457366
-0.043586724
-0.045819845
-0.2089569
-0.052061025
-0.005868496
-0.05044887
-0.0014803053
-0.038019516
-0.045555595
-0.014918124
0.06450046
0.14255032
0.2106375
0.13108717
0.1000056
0.041223977
0.035636473
0.053860717
0.044194195
0.03250685
0.03709
0.006716457
0.066455945
0.08277397
-0.034257732
0.01176273
0.038558953
-0.04037639
-0.0136121
-0.04738181
-0.111479305
-0.06836859
-0.06718333
-0.0096821
-0.018964913
-0.05159749
-0.04172741
-0.036939085
0.057646867
0.050506905
0.03191566
0.08801354
0.0056049707
0.034941744
0.08771861
0.093498416
0.03182864
0.018176941
0.07973189
0.04398172
0.03182564
0.063267715
0.0010125848
0.08138082
-0.065606415
0.022585489
0.014324689
-0.018686438
-0.051943347
-0.026543316
-0.08767363
-0.044455323
-0.006173934
-0.014890156
-0.046043754
-0.025268199
0.008019489
0.14843552
0.149603
0.04705433
0.05585766
0.03384919
0.017559245
-0.0029540174
-0.008630878
0.053079206
-0.011502276
0.096434906
0.050130844
-0.012983274
0.02703797
-0.0055046435
0.040494017
0.031439696
-0.121322565
-0.057926785
-0.08506686
-0.16410221
-0.07712811
-0.019449284
-0.06365159
-0.04467345
-0.0077497223
-0.05177695
0.05901054
0.14317518
0.028881725
6.371202e-05
-0.019411627
-0.02130758
-0.07181545
0.025584567
-0.007865489
0.033067644
0.03443301
0.042057484
0.04186543
0.034221064
0.010947422
0.074467935
0.031988963
0.037283648
-0.0130142085
0.109184876
-0.23128162
-0.29107964
-0.09934538
-0.024847386
-0.026215507
-0.019874286
-0.036526475
0.0071189683
0.10427545
0.22982587
0.02079652
0.057814322
0.104860984
0.036722887
0.033469338
-0.029357264
-0.10945023
-0.06738981
-0.04317657
0.07236195
0.11829333
0.09392318
0.023729594
0.032772742
0.06403361
0.09475444
0.050327662
0.14210004
-0.10138386
-0.29532698
-0.08993736
-0.0054671853
-0.0049589765
-0.030950228
-0.023919884
-0.029404476
0.130073
0.08715386
-0.015155542
0.020130176
-0.02364372
-0.07066286
-0.16337259
-0.13880001
-0.1655661
-0.14409752
0.0008704346
0.04183071
0.013459595
0.05845206
0.054839473
0.046942715
0.046600997
0.08521139
-0.025505368
0.088660724
0.001075269
-0.2460754
-0.074436955
-0.0058852513
-0.00658544
-0.001674289
-0.02034114
0.0022709325
0.1981671
0.1430426
-0.071498476
-0.104705036
-0.18502198
-0.15800568
-0.16873878
-0.114298984
-0.043110337
-0.027663277
0.009550847
0.036683567
0.020275138
0.008339984
0.08096361
0.021186335
0.04836751
0.09263472
-0.04882422
0.05527256
-0.10505109
-0.17122906
-0.039052486
-0.023559764
-0.047157045
-0.0017011686
-0.04208411
-0.031532455
-0.0022920917
0.0012928384
-0.1558434
-0.14727023
-0.09813979
-0.11698007
-0.04460637
-0.009017765
-0.049824707
0.020725949
-0.0064700907
0.13085733
0.018351007
0.026167404
0.008202382
0.031614527
-0.016396333
0.014481152
-0.22329815
-0.16491693
-0.18878372
-0.10743869
-0.049164932
-0.02809104
-0.068154626
-0.030154327
-0.017255759
-0.06836135
0.0080674235
-0.115607515
-0.07667973
-0.122183345
-0.08545757
-0.07881486
-0.045688223
-0.044917453
-0.066228285
0.011991984
0.08645932
0.07787371
-0.03257567
0.0017400805
0.010627315
0.032353744
-0.043546848
-0.14573981
-0.19116226
-0.30929226
-0.15280282
-0.0768717
-0.018153762
-0.016956192
-0.024579002
-0.06637237
-0.03757145
-0.008149871
0.015272553
-0.057661816
-0.14790966
-0.14192359
-0.14080921
-0.058818106
-0.023993017
-0.054058816
-0.059709184
0.034736715
0.008181023
0.03491099
-0.010452768
-0.004274386
-0.020548146
0.0203802
-0.06364515
-0.047525965
-0.030283708
-0.11777877
-0.02462601
-0.0079879165
-0.024276795
-0.029556295
-0.067127205
-0.05949732
0.008083384
-0.04488378
0.017213086
-0.02664017
-0.03635183
-0.06995411
-0.111150816
-0.13743019
-0.06596466
-0.068843216
-0.03212926
0.019881845
0.0027177448
0.033930846
0.03290314
-0.016214255
-0.039358776
-0.055232152
0.0035521772
0.06392993
0.08391178
0.07492639
0.12023292
0.11082705
-0.0444652
-0.038212493
-0.06925767
-0.025956662
-0.024492722
0.0340794
0.0063164984
0.17877528
0.04598709
-0.055719838
-0.0912394
-0.17162158
-0.04236036
-0.044717744
-0.014032225
-0.0064332653
0.07633466
0.009279084
-0.050405882
-0.099234246
-0.028858995
0.076919205
0.10004169
0.07249419
-0.01072207
0.07673892
0.17259455
0.23736802
-0.13712679
-0.01469968
-0.03469341
-0.031879056
-0.02930626
0.01684396
0.11680179
0.1223725
0.010987965
-0.009167109
-0.02657852
-0.06559497
-0.21527098
-0.16192874
-0.16256061
-0.10529806
-0.056925397
-0.16152345
-0.11365176
-0.01590254
0.047803104
0.00078874425
0.14796153
-0.03347318
0.04674399
0.04399944
0.106153026
-0.09502356
-0.20453297
-0.061341748
-0.03340486
-0.015571055
-0.019601228
0.04853728
0.25684148
0.059627444
0.113342695
0.027897712
-0.057025433
-0.061166685
-0.120717704
-0.1460526
-0.12940474
-0.15089762
-0.11715393
-0.09311752
0.044314943
0.1308294
0.0587679
0.02227172
0.052970532
0.03556178
0.09110199
0.12905103
0.03665204
-0.12954673
-0.137975
-0.056102734
-0.032980558
0.00011925935
-0.00021547022
-0.0686936
0.1632313
0.0712843
0.11400905
-0.0002005793
-0.06892963
-0.004944015
-0.023770388
-0.017581852
-0.07360799
-0.07273717
-0.0373319
0.016001489
0.003918513
0.054433245
0.079738386
0.076760866
0.059235465
-0.015977055
0.078275844
-0.0024969678
0.05959238
-0.03205364
-0.10674303
-0.011907179
-0.04695686
-0.029211566
-0.055238348
-0.026315683
0.15793484
0.11029316
0.08388871
0.12422156
0.044976458
0.031157883
0.054174494
-0.005858782
-0.08909185
-0.13737199
-0.020942124
0.029539425
-0.013274635
0.029752057
0.06640763
0.07665034
0.027936129
0.10105068
0.042083785
-0.0020556678
0.09772856
-0.063
-0.031178081
-0.026920592
-0.023804493
-0.051992696
-0.04377055
0.037866794
0.14671692
0.08276117
-0.04561904
0.04107037
0.051338367
0.047542896
-0.07219702
-0.041579954
-0.040000886
-0.010697981
-0.02784093
-0.03507891
0.01970974
0.025146304
-0.0065181046
0.05590692
0.09681121
-0.017312672
-0.07220327
-0.02060292
-0.06348036
-0.107266456
-0.058254518
-0.070350625
-0.049217198
-0.060327597
-0.02935127
0.021377554
0.097887866
0.06420696
-0.04718351
0.059038978
0.011786112
9.350586e-05
-0.014669481
-0.01747892
0.061532777
-0.037616175
-0.044164494
-0.0257075
0.026555652
0.021053677
0.059014007
0.016028397
0.030977637
0.07350693
-0.047583394
0.07947889
-0.06752194
-0.08630187
-0.021810856
-0.062290277
-0.059982043
0.00036836884
-0.0065170997
0.03499766
0.12342822
0.20078081
0.0866448
0.08422031
0.1065966
-0.010837752
0.062323846
0.03689732
0.07477067
-0.059965286
0.055801153
-0.025777306
-0.009467778
-0.072725795
0.020049637
0.10967405
0.015716592
0.028686507
-0.035141714
-0.108306035
-0.08445256
-0.06431931
-0.06303983
-0.00798533
-0.015775042
-0.040679615
-0.036003996
-0.016644789
0.1056219
0.2150252
0.08045947
0.14604832
0.15149026
0.04306344
0.013433096
0.12063593
0.105898954
0.07625461
0.07678866
0.10412309
0.027812842
0.050131075
0.06779273
-0.07585395
-0.07492747
-0.031777002
0.008458704
-0.03146767
-0.030084675
-0.039062984
-0.04305306
-0.05267363
-0.0056441254
-0.03739509
-0.057722796
-0.011942442
-0.042565215
-0.005310435
0.07139259
0.15740615
0.20127426
0.3361747
0.2676146
0.1806407
0.15363367
0.23090558
0.1891471
0.07893503
0.046849757
0.111499794
0.054494407
0.084419064
0.12333223
0.04124069
-0.08890849
-0.04399049
-0.028629221
-0.033599082
-0.014079319
-0.018985553
-0.032517433
-0.028813642
-0.0081650205
-0.06784532
-0.046715382
-0.013292127
-0.05023367
-0.0034341284
0.0071864277
-0.014124384
-0.058610644
0.0012973017
0.040661592
-0.009002508
0.048688006
0.038221247
0.037081443
0.10908717
0.05176523
0.029932665
0.064958096
0.007004614
-0.048082415
-0.043227717
-0.007489824
-0.039296653
-0.016827483
-0.013449518
-0.045210984
-0.015722925
-0.023241036
-0.057086654
-0.041461557
-0.012600531
-0.021181043
-0.030931309
-0.040648725
-0.060851235
-0.04802351
-0.015360819
-0.03900428
-0.05895464
-0.033973545
-0.068813205
-0.042183943
-0.03973027
-0.07020095
-0.061440688
-0.060580205
-0.059734516
-0.0053276424
-0.020458855
-0.059527844
-0.049486566
-0.00802605
-0.0030830489
-0.03077207
0.055202164
0.027538808
0.07588568
0.044696067
0.05809243
0.04745304
0.06708248
0.06305559
0.046494015
0.04899446
0.05461962
0.026425589
0.049896646
0.021961872
0.082286574
0.0728911
0.050943516
0.07937757
0.0578791
0.08735916
0.06189402
0.07156135
0.060186997
0.034495696
0.02122514
0.040531702
0.082668036
0.07298456
0.043057483
0.032509208
0.08989451
0.05859671
0.02390092
0.041539807
0.013429537
-0.03771417
-0.04125174
0.036239598
0.004923296
0.021560604
-0.06504101
0.0212787
0.06459898
-0.014996391
-0.08345919
0.0066249166
0.035878163
-0.0038093117
0.044822432
0.0118291695
0.016223177
0.058372904
0.026830632
0.059641562
0.03907332
0.07978525
0.08595444
0.046348155
0.031692505
0.07170654
0.027597286
0.0869192
0.037919987
-0.06118842
-0.11111462
-0.035505462
-0.1184499
-0.112397134
-0.1787249
-0.09265642
-0.017314324
-0.07919343
-0.16718331
-0.030017504
-0.067132756
-0.031318497
-0.045655787
-0.043782074
-0.023626076
0.016827017
0.02103274
0.042102724
0.08043044
0.05324462
0.03623119
0.08532013
0.021291774
0.03353346
0.07819853
0.049822673
-0.042166695
-0.09314376
-0.16685191
-0.23730983
-0.18313667
-0.16358383
-0.27673528
-0.44786617
-0.22677337
-0.26756775
-0.20001018
-0.09147187
-0.12821807
-0.06548986
-0.010516646
0.009241845
0.003698765
0.047973074
-0.009672657
0.078459114
0.019288246
0.0703503
0.02409555
0.043841034
0.051348865
0.048223525
0.08171683
0.037819047
-0.07032613
0.014372915
-0.08847163
-0.11531176
-0.18044846
-0.10445634
-0.102242514
-0.02299516
-0.099329144
-0.13761988
-0.056095064
-0.052091815
-0.09707339
0.056287166
0.20706046
0.17371897
0.18335281
0.16906805
0.15546617
0.006813809
0.033994365
0.07696178
0.07706905
0.02685616
0.043806545
0.07066321
0.10361062
0.0896004
-0.0112747615
-0.048442658
-0.012631677
0.041585162
-0.050428186
-0.030472962
0.014011711
-0.11085382
0.014962724
0.017576268
0.0001713462
0.01897055
0.036565576
0.059620716
0.005337703
-0.021940794
0.038641416
0.2130828
0.018869197
-0.006040437
0.0038293542
0.084267356
0.055906534
0.03394061
0.047714375
-0.009681955
0.08331114
0.140822
-0.05179659
-0.00022135445
-0.014082735
0.011662113
-0.057993717
-0.092012346
-0.10814634
-0.1112359
-0.16483043
-0.16102001
-0.16214512
-0.09873098
-0.1531205
-0.040382165
-0.060769133
-0.05764367
0.01350819
0.17693122
-0.023315875
-0.024585199
0.03567859
0.03691085
0.0835251
0.068904065
0.04697216
-0.0015957197
0.033637207
0.18704739
0.015678635
0.027189007
-0.021123482
-0.012758912
-0.09881543
-0.024090724
-0.13491657
-0.11883697
-0.115980856
-0.11891508
-0.14094064
-0.026715739
-0.057242837
-0.018250924
-0.0112156365
-0.012359381
0.022123573
0.11465937
0.036029182
0.0567694
0.09647049
0.02483075
0.028265279
0.021843644
0.034770466
0.04537799
0.03242282
0.09259368
0.022767615
0.060929798
-0.04467903
0.06776155
-0.079865746
-0.0043420964
-0.078318544
-0.091884606
-0.12500213
-0.078836024
-0.1545905
-0.045344673
-0.010167329
-0.051698394
-0.006508919
0.00083514315
-0.10642182
0.0070462762
0.011507615
0.10481283
0.031288255
0.03126606
0.0671938
0.020495802
0.061842915
-0.04711844
-0.12994643
0.0153718935
-0.06955161
-0.0024714812
-0.027090056
-0.04113673
-0.08666257
0.005336741
-0.052171495
-0.013362335
-0.21850143
-0.10705579
-0.009303858
-0.079909146
0.008773753
-0.02311233
-0.0009804275
0.009983358
-0.029975366
0.009788839
-0.120161094
-0.066758
-0.04974331
0.059779543
0.043311622
0.052224267
0.027994823
-0.058272835
-0.07021725
-0.0749644
-0.1362365
-0.033691365
-0.010626168
0.037042797
0.0047487775
-0.008858303
0.06149385
-0.10652468
-0.2581348
-0.0366357
-0.062260993
0.0011801136
-0.008025184
0.045795664
-0.033254612
0.011644165
-0.025620233
-0.20191757
-0.15059534
-0.06789917
-0.048827834
0.06125365
0.07510534
0.058345243
-0.04908609
0.011419688
-0.11602551
0.0016252266
0.0644586
0.009453518
0.048466645
0.13750121
0.1294531
0.046684146
0.15689453
-0.26780477
-0.3218804
0.106118724
0.11170833
0.085960165
-0.0063537112
0.021312578
-0.11083401
-0.0885337
-0.070539266
-0.23834689
-0.23290697
-0.11491409
0.004141367
0.041723065
0.051751744
0.019711476
-0.08418917
-0.03965552
-0.1531744
-0.026177272
0.033035234
0.1206673
0.10718243
0.04889615
0.10668374
0.15982425
0.26469874
0.016928688
-0.20023759
0.05995762
0.0868851
-0.0009173902
-0.025363324
0.0011321694
0.022400633
0.09909837
0.020711754
-0.077568255
-0.008646517
-0.04160081
0.011497365
0.07665056
0.085054696
-0.0010633284
-0.03961885
-0.07245951
-0.0474777
0.053768113
0.11416446
0.05916399
0.124403104
0.11179716
0.1533202
0.15381874
0.16322766
-0.1414709
-0.01704499
0.12852429
0.06918778
0.065757394
0.071371995
0.045039214
0.1109902
0.11342562
0.09650631
-0.04966698
-0.11846361
-0.0039733066
0.024813559
-0.012564152
0.024045033
0.0679055
0.0160179
-0.011545992
0.2275604
0.155074
0.075866684
0.11529725
0.05268867
0.053810645
0.0705477
0.099168405
0.10452421
-0.06252585
-0.011901641
0.051502865
0.089742556
0.1436364
0.028971588
0.14600381
0.038412675
0.020601148
0.05557074
-0.06986759
-0.099046454
-0.038009353
-0.000689621
0.0765192
0.064777985
0.07335231
0.065384954
0.043208417
0.13697399
0.030968072
0.043517936
0.08315105
0.074613355
0.10474243
0.089889176
0.1008693
0.047527917
-0.08268954
-0.02379861
0.09454754
0.16421229
0.12949158
0.033437774
0.0795109
-0.08836425
-0.060207434
0.091020174
-0.040897615
-0.29191333
-0.08633531
0.044842657
0.03977038
0.02699643
0.042949464
0.04657241
-0.09203141
-0.15350272
-0.059841402
0.0017458675
0.10804999
0.085010305
0.040504433
-0.016930806
-0.012127107
0.0042671463
-0.02975725
0.081228204
0.15502144
0.117895156
0.057213444
0.04186146
0.047218055
0.093801074
0.046441324
-0.029796273
-0.011726425
-0.17178021
-0.08122077
-0.070574395
0.03154267
0.088077664
0.08447096
0.020368146
-0.17601196
-0.11130938
-0.11116303
-0.04261471
0.05501067
0.07912968
0.015812017
-0.030798182
-0.036473442
-0.03649606
0.083161384
0.14202192
0.09809537
0.10945466
0.07269679
0.06526314
-0.061435588
0.02934445
0.026569974
-0.048059814
-0.05715356
-0.14733374
-0.12936702
-0.035378646
0.02983829
0.03490917
0.025699418
0.052724984
-0.09468246
0.0058921822
-0.051704574
-0.032882743
-0.028512651
-0.012220483
0.039057676
-0.09766876
-0.048772108
0.06453554
0.09981329
0.09057709
0.058529455
0.06870108
-0.07665459
-0.039150234
-0.026336245
0.0056468523
0.052744243
-0.17166567
-0.06128731
-0.12926063
-0.10745634
-0.0024128293
0.06713985
0.028845705
0.009735606
0.0101839695
0.12556337
-0.0029076256
-0.004643134
0.023319907
-0.025321847
-0.09795399
-0.16507193
-0.16813515
-0.028433936
-0.19557905
-0.02683913
0.05309132
-0.0030886412
-0.0045043454
-0.06848321
-0.042709608
-0.06625765
-0.093280405
-0.021144915
-0.27720714
-0.1834893
-0.1269824
-0.029950306
0.08422485
0.0864257
0.08690552
0.019834599
0.03159672
0.055013664
-0.0063886833
-0.15249823
-0.10278104
-0.18870948
-0.20335321
-0.13669635
-0.17701226
-0.06674795
-0.06451524
-0.1282347
0.0012049052
0.03083555
0.04067501
0.03317361
-0.024816597
-0.110086024
-0.11319411
-0.0052724285
-0.15241297
-0.14618161
-0.07309449
-0.07513204
0.05230543
0.061094157
0.04891722
0.031601023
0.028140515
0.0045567444
-0.049347676
-0.06368062
-0.25905168
-0.21204051
0.040319573
-0.02774733
-0.07122403
-0.0051291897
-0.07986739
-0.07763857
-0.05278527
-0.005123465
-0.085225485
0.019440813
-0.07939098
-0.012589178
-0.009864359
-0.023820626
-0.003691497
0.020119248
-0.049264528
-0.04907556
0.057684198
0.05585207
0.061397396
0.052687332
0.04605895
-0.029295294
-0.04616664
-0.11554923
-0.1322501
-0.11435517
-0.07938145
-0.10641814
-0.06247996
-0.07052388
-0.09839108
-0.04456004
-0.09096899
-0.05403583
-0.052746303
-0.022453966
-0.018119719
0.06320355
-0.029562712
0.10407478
-0.014640255
0.019412236
-0.01257522
-0.017758716
0.03976562
0.07060788
0.067975745
0.035869513
0.033259492
0.045218356
0.0103194015
-0.03002296
-0.024417128
0.012636503
-0.041295517
-0.008931658
-0.024904227
-0.035706427
-0.041360702
-0.05039156
-0.004224934
-0.060753543
0.046400264
0.023540264
0.0506894
0.026754672
0.031653725
0.08541157
-0.08731535
-0.093217745
-0.04504128
0.03511364
0.05015076
0.041141808
0.0413309
0.088145085
0.03602432
0.08805053
0.056338955
0.0022757011
0.06436756
-0.011100153
0.00064428773
0.034081515
-0.022966474
0.09883421
-0.039689098
-0.05918631
-0.0044910074
-0.059338056
0.010080628
-0.06399773
-0.03667708
0.037410796
0.046720278
0.037127182
0.019358361
-0.029698092
0.035582144
0.07619244
0.026670825
0.046380896
0.0835313
0.020397173
0.057836305
0.028299415
0.02701318
-0.008083989
-0.06283782
-0.16148783
-0.19371481
-0.124033615
-0.027924687
-0.0965176
-0.17427404
-0.08865019
-0.054587767
-0.05668584
-0.1386855
-0.14294708
-0.06384299
-0.15139769
-0.12579203
-0.118824005
-0.016747693
0.01945122
0.046910573
0.0458231
0.07904274
0.03445158
0.02639518
0.031217074
0.074223496
0.057804115
0.049881756
0.045711316
-0.009183063
-0.06770266
-0.118534006
-0.22495073
-0.2136856
-0.2664302
-0.25431916
-0.2799801
-0.4211102
-0.30062386
-0.2730084
-0.25867292
-0.2529392
-0.21135528
-0.09127462
-0.052099228
-0.00096576195
0.0347952
0.03494981
0.0534284
0.08294145
0.035236035
0.04035962
0.037061997
0.024867075
0.06849982
0.04958943
0.057780012
0.08210349
0.023319766
0.04367956
0.04123229
0.011613077
0.05351939
0.021140235
0.01571505
-0.04897095
-0.013779196
0.027323738
0.054207288
0.052456062
0.06606548
0.02156206
0.02958235
0.045398057
0.07645663
0.03501958
0.026252955
0.06684903
0.034184225
-0.011148358
-0.06915273
-0.02922098
-0.05780813
-0.07616293
-0.081628494
-0.031295348
-0.0576984
-0.06978981
-0.011562155
-0.025860637
-0.023291886
-0.06292221
-0.04873394
-0.038906284
-0.050917
-0.0296485
-0.055495784
-0.054787803
-0.050544422
-0.06086317
-0.07129343
-0.050815504
-0.059584636
-0.0580932
-0.062419716
-0.0302692
-0.05261112
-0.019296713
-0.036340106
-0.058693748
-0.011271111
-0.05796553
-0.076925844
-0.022819078
-0.06717214
-0.022500172
-0.01949453
-0.058407996
-0.06112846
-0.036809232
-0.03180888
-0.0203856
-0.039775774
-0.047088884
-0.01688846
-0.04037766
-0.078328796
-0.058101237
-0.049491793
-0.034893677
-0.08108686
-0.082317986
-0.06715204
-0.04223653
-0.022576282
-0.076558046
-0.032005988
-0.044942915
-0.015357776
-0.06674819
-0.057939824
-0.0352539
-0.08121821
-0.02530794
-0.06635373
-0.07069214
-0.1348613
-0.080542095
-0.10112631
-0.117045835
-0.09166955
-0.03699595
0.030304156
-0.0024331268
-0.016260922
-0.028788347
-0.06433386
-0.077056706
-0.07857024
-0.037979472
-0.07570054
-0.07541287
-0.049722075
-0.025896203
-0.06687353
-0.052179024
-0.06281092
-0.013689908
-0.09639387
-0.0700951
-0.046477884
-0.07230245
-0.034178104
-0.062335297
-0.116566464
0.0024002166
-0.026562346
-0.05327051
0.036459647
-0.02637245
0.032644868
0.04604576
0.035951465
0.11387351
0.12928785
0.05364518
-0.004178253
-0.02677134
-0.021732517
-0.012568029
-0.029108621
-0.030048586
-0.034939956
-0.06326536
-0.084858604
-0.07271355
-0.14976268
-0.12464408
-0.06860442
-0.16661553
-0.10016224
0.00059580355
0.048289567
0.031699132
-0.11234231
-0.009095092
0.07026036
0.008900598
0.062466227
0.084856905
0.0686891
-0.06600072
0.08888348
0.01699489
0.13365236
0.20990089
0.081474826
0.014593231
-0.08415938
-0.015190715
-0.036396585
-0.025064733
-0.06097141
-0.19352914
-0.14000043
-0.16506758
-0.020981938
-0.023923036
-0.0010229601
0.054776475
-0.0019468123
-0.03529771
-0.017346783
-0.028072035
-0.07229676
-0.013836992
0.057356987
0.051157925
-0.031612948
0.08712828
0.04651851
0.04990175
0.07831212
0.159095
0.19313116
0.018881893
-0.015313448
-0.0422374
-0.064016566
-0.06473662
-0.15640463
-0.13399068
-0.010033528
-0.035311658
-0.025611943
0.0063568633
-0.041986056
-0.04703203
0.0009583275
-0.0139685795
-0.013097269
0.04340698
-0.00654209
-0.036429856
-0.021225026
0.031740047
0.08816033
0.059011783
-0.02832908
0.06825752
0.053738177
0.22924978
0.17407443
0.044225097
-0.0069078864
-0.05168834
-0.06230466
-0.04175482
-0.099872366
-0.31382707
-0.0596605
0.02507229
0.00897372
0.098282225
-0.0013467342
0.07995998
0.04694169
0.012965573
-0.0492943
0.012658159
-0.04696062
0.0058161123
0.023668945
0.005890604
0.0159448
0.04288859
0.04391092
0.065845594
0.08312269
0.19730961
0.30976832
0.04238329
-0.031116163
-0.07691121
-0.073325045
-0.073050335
-0.158097
-0.37947422
-0.10570757
-0.019002307
-0.060018443
0.015644403
0.03495368
0.016899325
0.04029186
-0.008248323
-0.020123342
-0.052122865
-0.054455504
-0.023855058
-0.004480252
-0.014724968
0.030318195
0.08196328
0.045963384
0.00017568984
0.15679318
0.3688329
0.27952108
0.070166595
-0.02226293
-0.019682022
-0.02364207
-0.064601734
-0.1195305
-0.21941704
-0.120570995
-0.038926624
-0.015319534
0.058801062
-0.03337147
0.036854275
0.11091702
0.05662512
-0.0060130456
-0.085942924
-0.1359236
-0.14936422
-0.060900807
-0.0112628415
-0.03649563
0.016737264
0.10333407
0.07556381
0.15071087
0.41403782
0.40272304
0.10035934
-0.0029209256
-0.04637142
-0.05852356
-0.06501434
-0.13989638
-0.08233085
-0.040861744
-0.05000988
0.045872428
0.09779559
0.095697135
0.089814134
0.043310698
0.11295586
0.04537476
0.029163208
-0.04579382
-0.08034249
-0.13711832
-0.15684013
-0.13785964
-0.08079197
0.0011484314
-0.03723654
0.15098882
0.557723
0.56925434
0.15969609
-0.061477423
-0.02801738
-0.03564944
-0.06707434
-0.19162928
-0.025101082
0.012368614
0.0416324
0.06421969
0.053221636
0.031323455
0.036219757
0.027231514
0.059993133
0.10123707
-0.01760772
-0.071858376
-0.07818728
-0.049896438
-0.01772518
-0.11483204
-0.21264617
-0.19458881
-0.21987028
0.07157165
0.34751654
0.49351382
0.10968279
-0.052627847
-0.07966365
-0.06774849
-0.07005886
-0.037535414
-0.029177753
-0.028740766
0.10429482
0.020729406
-0.011688197
-0.04866888
0.05681604
0.024933437
0.06476613
0.06920896
-0.032774016
-0.014916577
-0.10101082
-0.13627823
-0.08499011
-0.14041115
-0.09720693
-0.3048038
-0.42669407
-0.449062
-0.497481
0.014650105
0.11815652
-0.06664614
-0.07992121
-0.028684625
-0.024822108
-0.0428775
0.009228395
0.08686055
-0.053960945
0.04276487
-0.030566817
0.013303646
0.03861287
0.06673757
0.13099065
0.06052931
-0.029071856
-0.10519069
-0.14766507
-0.092687055
-0.041742813
-0.013401599
-0.01426741
-0.08886227
-0.116034634
-0.26327834
-0.41530895
-0.17588007
-0.03233946
-0.057524104
-0.041086152
-0.026955452
-0.07286607
-0.018459814
0.040706195
-0.056419358
-0.058089834
-0.025687872
-0.0102737155
0.043532424
0.06444625
0.015703524
0.010355741
-0.0010254451
-0.046389274
-0.040928494
-0.10049565
-0.11597317
-0.07977479
-0.09425058
-0.032023527
-0.061734457
0.034766972
0.0027224822
-0.035807256
-0.22633919
-0.097919844
-0.07000929
-0.016260799
-0.058429576
-0.07425391
-0.017346753
-0.02301474
-0.1288347
-0.077331156
-0.09101027
-0.03886167
0.05460271
0.04224598
-0.007205412
0.047099497
-0.036733672
-0.10739259
-0.093136355
-0.07152842
-0.06777553
0.05922116
0.0042202296
-0.0371946
0.002855224
-0.08574103
0.029261744
0.12078181
-0.10736143
-0.10571209
-0.08606621
-0.018753355
-0.048803084
-0.060082123
-0.03786548
-0.06690971
-0.0200862
-0.0593603
-0.1667088
-0.099239014
-0.13833372
-0.032058306
-0.044565257
-0.020511262
-0.040270578
-0.0955644
-0.04142207
-0.10529745
-0.05036649
-0.06796184
0.029595276
0.03240227
0.0066265357
0.08851916
0.03556441
0.00084024685
-0.07506152
-0.14315334
-0.09787911
-0.081988506
-0.022418097
-0.05270222
0.023009779
-0.005069544
0.014320639
0.13722265
-0.09921891
-0.08914117
-0.11830807
-0.11128679
-0.106149584
-0.1667005
-0.14798585
-0.13891792
-0.010572921
0.019206453
0.042547617
0.08632434
0.019452207
0.023442496
-0.008636624
-0.04516577
0.05224293
0.015249791
-0.13582955
-0.06403815
-0.083112724
-0.02889914
-0.052681103
-0.0940161
-0.016931284
0.13444312
0.09386958
0.15222706
0.03939327
-0.050940104
-0.061806113
-0.06454478
-0.0043413527
-0.07525596
-0.009415868
0.0053734942
0.020691121
-0.021993367
0.043764636
-0.048683457
0.033568062
0.007548641
0.012215769
0.021068385
0.07319657
0.052226465
-0.09596032
-0.055591922
-0.08285391
-0.041998003
-0.028096175
0.017574457
0.0674941
0.15542346
0.006036527
0.058539525
0.0010541802
0.09834218
0.01216726
-0.020626655
0.010254845
-0.016378675
0.026897896
-0.041196402
0.016306313
-0.025234604
-0.009612356
0.021461532
0.0025278917
0.057829376
0.037472263
0.016113097
0.12348869
0.116492175
-0.0726631
-0.06118177
-0.07304861
-0.06910441
-0.05337204
-0.033686448
0.03727574
0.0040513068
0.10969666
0.019930763
-0.041090995
0.05406387
0.05715179
0.017207878
0.024182426
0.010231997
0.023333263
-0.023246633
-0.0030638645
0.035047334
0.063240446
0.04049267
0.04173025
0.0031536124
-0.01625109
0.14316109
0.07609103
-0.023795314
0.029478598
-0.023903346
-0.01926537
-0.017891137
-0.07804342
-0.028867206
0.005977265
0.10191767
0.031276572
0.026325973
0.058897946
0.058686044
0.017599525
0.0053664837
0.066188656
0.027649105
0.024920013
0.039829724
0.040689986
-0.01113416
0.024684574
-0.010440521
-0.009979039
0.067069516
0.13133784
0.15945923
0.05439606
0.06634734
-0.00740729
-0.055353865
-0.026715461
-0.07107426
-0.027246004
-0.074970394
-0.046408013
0.099287815
-0.07146602
-0.070177555
-0.009745419
-0.019943634
0.030453755
-0.045098662
0.027196141
0.050243262
0.039857797
0.065026864
-0.011117536
0.042014237
0.0022941078
0.07111689
0.048985478
0.028819874
-0.0023230875
0.06220576
0.13238418
0.07081409
0.016088482
-0.0120581025
-0.017567743
-0.07519676
-0.03576141
-0.07325099
0.0024010062
0.10968633
0.06538404
0.008221737
-0.093482845
0.07607721
0.019293714
0.095869154
0.019634942
0.026620932
-0.027004346
0.033287693
-0.01182984
0.05935016
-0.014426073
-0.081819676
-0.074767254
0.008503769
0.0022190197
-0.0037917898
0.050945114
0.054026302
0.006045891
-0.008306219
-0.039590366
-0.04982082
-0.08232714
-0.054386564
0.016790187
-0.056941237
-0.015014894
0.006756179
0.0027355845
0.031375453
0.09621265
0.04256031
0.036525425
0.07578398
0.10878392
0.090084985
0.07353653
-0.010961894
0.06868692
0.09647493
0.0013529989
0.05154258
0.005864367
0.07950662
0.02545879
0.031067472
-0.03837078
-0.061106045
-0.033078395
-0.017535571
-0.07571808
-0.05978133
0.031424053
0.012946698
-0.0033698992
0.0015138399
-0.026523324
-0.026097264
0.109957166
0.0236637
0.09695016
0.08638313
0.10283843
-0.025542824
0.16531709
0.09184742
0.13035199
0.07085852
0.08656017
0.021216638
0.098009594
0.1848677
0.12678076
0.050119083
-0.081058055
-0.032119017
-0.043840066
-0.082142785
-0.08179676
-0.04156918
-0.053562026
-0.02075615
-0.04773918
-0.1018058
-0.13891481
-0.14387716
-0.12159637
-0.040561415
0.05799777
0.03978178
0.026542017
-0.048816755
0.056370948
-0.010319287
-0.060543634
-0.10943347
-0.039649643
-0.014962463
0.012707475
0.001770785
-0.041625444
-0.05142868
-0.073096894
-0.066665195
-0.045716885
-0.03969875
-0.05168013
-0.07897208
-0.06799427
-0.025890624
-0.048832793
-0.08267416
-0.080323465
-0.06420069
-0.07947308
-0.015261095
-0.007598267
-0.04168199
-0.023747725
-0.047901094
-0.06588417
-0.05298549
-0.064153016
-0.07997385
-0.03673183
-0.054841075
-0.038794283
-0.035340223
-0.025974512
-0.044533785
-0.04489771
-0.026089298
-0.06604669
0.010281181
0.019789169
0.0073488983
0.003449346
0.02752837
0.024875887
-0.01561775
0.0012699808
-0.01160469
0.02859497
0.015585082
0.013660319
0.033431042
0.020808643
0.033396315
0.003834715
0.029609913
0.025544511
0.0411354
0.004618228
0.01465685
-0.025110377
0.03962654
0.01266209
0.021873735
-0.022425434
0.0042944667
0.03980881
-0.007291443
0.019878754
0.030755898
0.029322738
0.043036874
-0.0072667734
0.041882396
0.13563173
0.10931046
0.032578766
0.02042061
0.09114351
0.11728716
0.13978697
-0.0056743254
0.0689361
-0.020883214
0.052982464
0.090694375
0.09903598
0.039229013
0.04176865
0.037712786
0.02131862
0.020684073
0.034375444
-0.007197052
0.032830954
0.0024518836
0.01065269
-0.013569478
0.018681873
0.01511993
0.035808515
0.119856365
0.23269188
0.22841448
0.12026886
0.26596382
0.24719493
0.239297
0.13956909
0.15926601
0.1349283
0.085391164
0.13711645
0.11015228
0.1527151
0.17567042
0.16285534
0.18882753
0.12377038
-0.029460052
-0.03948929
-0.0012766949
-0.018735288
0.02586872
0.030877603
-0.016624419
0.039184343
0.030824706
-0.0031940255
0.15875158
0.13863537
0.1216011
0.17135704
0.13259754
0.12754524
0.09110983
0.11534924
0.086361505
0.06825831
8.6080014e-05
-0.021606497
0.030106032
0.110893406
0.00022023101
0.08856336
0.16129854
0.18827574
0.080627866
-0.07328247
0.011153724
0.0054737907
0.014484775
-0.015270697
0.009782559
-0.027753739
0.054661646
-0.0023113417
0.0427373
-0.00020939032
0.004358303
-0.03972295
-0.011375178
-0.057383943
-0.07983821
-0.03420182
-0.042039134
-0.08719923
0.004557832
0.03596973
-0.048673112
0.004769437
0.004611155
0.045252908
0.08007134
0.1444044
-0.13910788
-0.12635957
-0.035084352
0.05228431
0.01746944
-0.008798735
-0.013448072
-0.06287806
0.05773123
-0.10052481
-0.021013161
-0.07815671
0.016588125
0.0068043624
0.04014311
-0.17104737
-0.07639117
-0.14402358
-0.014294017
-0.07637158
-0.09267244
-0.005174211
0.019973593
0.09494024
0.02705245
0.02410238
-0.046967067
0.15088715
0.074496664
-0.07267548
0.046468142
0.03688574
-0.024123898
-0.0030261844
-0.013026639
-0.0047205966
-0.004567004
-0.08010487
-0.098782465
-0.04652903
-0.005668579
-0.065564595
-0.15691644
-0.077316925
-0.07553486
-0.101016454
-0.07899854
-0.035942398
-0.091668375
-0.06723074
-0.12048657
-0.07462159
-0.05104501
-0.022289637
-0.025097698
0.06380763
0.08242427
0.029899811
0.02797442
0.06428236
0.002236218
0.02179965
0.0144932205
-0.03915708
-0.008742525
-0.0076761986
-0.15704285
0.016065111
-0.05163044
-0.036126003
-0.07926644
0.015325529
-0.034445502
-0.12613128
-0.042227097
-0.044041306
-0.11113466
-0.07997072
-0.08853125
-0.11088143
-0.1202761
-0.01793232
-0.13350986
-0.066828415
0.12776574
-0.07282674
0.025684731
0.021539716
0.04294378
0.025516964
-0.0053319973
-0.07151186
0.04596402
-0.026300833
-0.10785019
-0.06776616
-0.09192332
-0.06102088
-0.082446866
-0.06230458
-0.07482882
-0.03529578
-0.09973876
-0.17564748
-0.16312276
-0.081018366
-0.23822504
-0.16143607
-0.14821231
-0.08640749
-0.14403896
-0.23478167
-0.21675585
-0.15255041
-0.11316974
-0.019167598
-0.009610497
-0.016755141
-0.031231439
-0.06114269
0.092004776
-0.11800397
-0.074943684
0.0020559048
-0.053069938
-0.07648158
-0.11097759
-0.03747429
-0.085068546
-0.14419696
-0.105153896
-0.14290564
-0.19604541
-0.25090706
-0.22934878
-0.14903274
-0.07382472
-0.022281328
-0.150959
-0.17324921
-0.17593874
-0.24095745
-0.13498223
-0.01264839
-0.017215239
-0.011265498
-0.04233754
-0.07869891
-0.02022856
-0.10172755
-0.10108891
0.021642124
-0.015273016
-0.0889184
-0.021614969
-0.07328452
-0.088992275
-0.039656054
-0.08594731
-0.175928
-0.14338762
-0.14390445
-0.1447071
-0.1294245
-0.105149835
-0.092454396
-0.18895946
-0.030602971
-0.07598417
-0.2923026
-0.10188043
-0.048247997
-0.014122526
0.02783625
0.02130678
-0.05020436
-2.672409e-05
-0.0067272885
-0.05416008
0.0364143
0.004372172
0.061145242
-0.014498351
-0.046160407
0.051803403
0.022371024
-0.10051562
-0.2032267
-0.076991715
-0.12502436
-0.11689261
-0.03134003
-0.06843937
0.0045463284
-0.066308565
0.1393474
0.014549936
-0.27082983
-0.22087178
-0.0027716176
0.015401571
0.021432498
-0.016689328
-0.092453025
-0.07936219
-0.017424868
-0.00082496007
0.077025354
0.044973113
0.07765221
0.0032395078
0.08659815
0.034023188
0.02734536
-0.10214941
-0.12060276
-0.009181967
-0.026768599
-0.08934445
-0.13736556
-0.05280057
0.0066736387
0.14202029
0.2556242
0.12928364
-0.15919952
-0.25782442
0.02297688
0.008307054
-0.0065137907
0.04223434
-0.032922707
-0.038088437
0.06276578
0.17695323
0.00867053
-0.015144486
-0.0020409755
0.06365337
-0.010544077
0.03761982
0.027802711
-0.067321934
-0.024748972
-0.01455202
-0.09199297
-0.0764214
0.033810988
-0.07503625
0.08508949
0.0996761
0.28829068
0.20400856
-0.15327334
-0.26935935
-0.019303655
0.038416408
0.02925578
-0.018547999
-0.046700392
-0.19669601
0.081733964
0.028571533
-0.05301368
0.037975974
0.08836907
0.112298325
0.12982512
0.03616878
-0.033819962
-0.052101865
0.03135072
0.023969742
-0.0969265
-0.082911484
-0.00098849
-0.041397452
0.0687757
0.058785696
0.10910967
0.11429705
0.02501924
-0.17595632
-0.029416312
-0.010335557
0.043710846
0.04411919
-0.070545435
-0.31592718
-0.066977195
0.056048967
0.08300263
0.059280176
0.04080795
0.035520718
0.1081048
0.07672654
0.033570863
0.09985644
-0.008618065
-0.035634574
-0.024763249
-0.016442455
-0.002978123
0.01089953
0.06784431
-0.062348537
-0.021351751
0.0045218454
0.21200605
-0.18985948
-0.029779796
-0.018984813
0.037019882
0.010920055
-0.054578096
-0.21756732
-0.006561719
0.073491424
0.09816751
0.06546696
0.09021014
0.10489849
0.2351914
-0.012923262
-0.045137696
0.029836033
0.0022471824
-0.0062063034
-0.092408426
0.0431801
0.04308435
-0.0073019564
-0.006873884
0.010407352
-0.030433837
0.010323454
0.12129871
-0.18139693
-0.017889818
0.036901202
0.00646779
0.028202632
-0.0658412
-0.24367875
0.040525995
-0.013511728
0.036863364
0.11924553
0.11784763
0.19128844
0.17989585
0.048265453
0.05530367
0.06009828
-0.014412454
-0.035635184
0.013998281
0.033671442
0.047276706
0.03667512
0.029998554
0.024763158
0.043593448
0.08637579
0.11830906
-0.12555064
0.008295343
0.015274308
0.018481517
0.032991596
-0.038950585
-0.16381279
-0.0884288
-0.03211948
0.047646012
0.0008463103
0.07183289
0.053468548
0.045462213
0.16955441
0.10891511
-0.0010054276
0.010510769
0.061131075
0.074581504
0.044282857
-0.004269584
-0.00977553
-0.002248709
-0.030734003
0.0104527995
0.021033455
0.104160905
-0.03962651
-0.026752152
-0.021973055
0.0339553
0.022109095
-0.060024712
-0.06882948
-0.05404003
0.005559962
0.026234461
0.0018583833
0.087582774
0.14541002
0.18673435
0.18069045
0.09525095
0.100205146
0.088827595
0.07220982
0.048534606
0.06414264
0.028864939
-0.027873501
0.040238842
0.062334914
0.05464947
-0.016445551
-0.06345618
-0.029292418
-0.0031209309
0.01169997
-0.014351819
-0.014570986
-0.0426803
-0.118037075
-0.10033411
-0.106721826
0.017399615
-0.07996993
0.08242609
0.11897353
0.09690926
0.16651109
0.07731268
0.1850444
0.12489249
0.042649634
0.012757591
0.0966645
-0.029251313
0.09204976
-0.0140206115
-0.05587526
0.057777572
-0.08431254
0.013075331
0.025081959
0.013394067
0.019773094
-0.0003065518
0.0031589677
-0.024054948
-0.13588536
-0.17205147
-0.23853065
-0.014095798
0.061603654
0.024904003
0.08013661
0.09920064
0.19912864
0.14323853
0.1880519
0.08233736
0.06850073
0.09236195
0.12412432
0.021812687
0.03942548
-0.0130101275
0.025944874
-0.076740004
-0.04678847
-0.0004397751
0.0011745142
0.029667817
0.035383824
0.035615876
-0.007574918
-0.017864898
-0.07732428
-0.14361273
-0.2397534
-0.063048296
-0.008606167
0.08413158
0.100706145
0.012608396
0.07350653
0.13134275
-0.014822094
0.13243575
0.06421708
0.013739356
-0.03145917
-0.0040363404
0.02127818
0.042599883
-0.10836572
-0.20697264
-0.0796695
0.023381338
0.03499392
0.013556953
-0.017478844
0.001627697
-0.007472616
0.0026741573
-0.039059263
-0.06336152
-0.12626225
-0.1943405
-0.13092221
-0.08803509
-0.1747763
-0.12679607
-0.022561496
0.02344977
0.028280033
-0.023062404
-0.06657539
-0.017163044
0.07929065
0.07979011
0.024037423
-0.018989898
-0.075383954
-0.08502487
-0.034478992
0.03507831
0.037145916
-0.014504059
0.02045815
0.040876072
0.011967623
0.0056679533
0.036347803
-0.011272384
-0.037046593
-0.045924827
-0.124183655
-0.21576622
-0.22065055
-0.31467307
-0.20067142
-0.2551639
-0.25041753
-0.13380697
-0.013359632
-0.07836665
-0.06186226
-0.10548001
-0.041384585
-0.06829659
-0.042415943
0.009125812
0.011891424
0.037784297
-0.012288465
-0.002743099
0.005737651
0.024322202
0.022292763
0.028722864
-0.011317228
-0.000766894
0.013488205
-0.028501092
-0.01705961
-0.027659958
-0.029356886
-0.022541087
0.0116893975
-0.1146455
-0.11852177
-0.08573536
-0.100044996
-0.046931453
-0.055556495
-0.02616703
-0.016450595
-0.010717921
0.009121129
0.038642082
0.009415062
-0.0004277815
0.039023988
-0.006444635
0.019108964
0.010511588
0.020347653
0.030665813
0.018289896
0.005162798
0.019335328
0.004867057
-0.013048977
-0.0030337123
-0.024314204
-0.00019687202
-0.024009448
0.006917048
0.026702724
-0.015090234
-0.033319037
0.029588459
-0.016393797
0.02802486
0.03077975
-0.005649761
0.009678666
-0.0054354495
0.03971424
-0.015858795
0.013829438
-0.010231322
0.03799035
0.027198521
0.04070998
-0.0065385387
0.021928178
-0.021202091
0.029402431
-0.0043163733
0.020381495
0.02696716
-0.012802318
0.02966637
-0.0053643943
0.022749279
-0.0034686227
0.010338518
0.012177464
0.039582014
0.019071432
0.01564017
0.0030511976
-0.02630228
-0.0064406395
-0.0023192107
0.023231307
0.007262051
0.021040682
-0.008674608
-0.0343155
0.014318708
0.020512775
0.02010621
0.030845456
-0.033598702
0.011854807
0.029593544
-0.017012408
0.021143632
0.019697912
0.00883644
-0.03293175
0.017961167
0.03330333
-0.003664262
0.015473611
0.028447615
-0.02543131
-0.031995047
0.01515996
-0.00026456686
-0.015555686
-0.03213463
-0.020925926
0.010884755
-0.005336979
-0.029801628
-0.002379317
-0.0005723497
-0.032091916
0.022645177
0.036917645
0.026577398
-0.030918507
-0.02097936
-0.028012859
0.030446224
-0.016139122
0.023816945
-0.029098198
0.011277077
0.025126897
-0.019114414
0.01273387
0.016999915
0.009281411
-0.012480191
-0.026439464
0.008591111
-0.03114131
-0.010553303
0.0070117847
0.023264166
0.028519157
-0.028721241
-0.014584545
-0.001975937
0.0005359404
-0.007406714
-0.021434963
-0.006696054
-0.0063744634
-0.02179011
0.009735254
-0.030470612
-0.039722145
-0.014685393
-0.043021135
0.01743302
-0.046183407
-0.055272114
0.013916297
-0.009932031
0.024464654
0.02575924
0.033238575
0.02700049
0.021477453
-0.020482788
-0.0089130495
-0.0024781656
0.001200533
0.029154921
0.0120559065
-0.031927947
0.010259402
0.0030548766
0.016422257
-0.0150472205
0.029629374
-0.044407412
-0.023184145
-0.012411377
-0.1088441
-0.1580217
-0.085129075
-0.14280991
-0.10982242
-0.11726519
-0.05729726
-0.016441973
-0.009903626
0.0054667853
-0.0065795835
-0.046367083
0.006524665
0.033288114
0.021140723
-0.021112544
0.016586812
0.00919558
-0.021040983
-0.030078366
-0.01886666
-0.02575349
-0.013746886
-0.02787177
-0.060124688
-0.09355314
-0.13288578
-0.17823447
-0.29401788
-0.23438168
-0.16918762
-0.17622991
-0.20590815
-0.22362566
-0.24022168
-0.17545612
-0.20006375
-0.13370243
-0.04877152
-0.024671607
-0.013941133
-0.03626995
-0.027615353
-0.02535088
-0.0001593168
0.0006769681
-0.011932716
0.008551083
0.022103095
-0.017671268
-0.017272437
0.05708241
0.057461914
0.04582015
0.12059141
0.13686383
-0.07011901
-0.06966713
-0.035987835
0.013943419
-0.05298805
-0.102823496
-0.060409423
-0.16842084
-0.117828906
-0.2586112
-0.29194212
-0.15272222
-0.12677985
-0.07304893
-0.05894133
0.003358248
-0.005951378
0.021780532
0.036813993
-0.024702163
0.023733871
0.1003925
0.04989287
0.14644453
0.15349112
0.13465898
0.13687947
0.03832118
0.09642641
0.14008771
0.100937635
-0.03604255
0.008208689
0.004500679
0.024912145
0.035139203
0.030052915
-0.0076048975
-0.071286574
0.036487255
-0.03117397
-0.1403707
-0.08757463
-0.024622709
-0.03172603
-0.0013885611
0.018073851
0.021529833
0.056237143
0.23217474
0.100051515
-0.009856498
0.066367954
0.12941255
-0.022408307
0.05740448
0.08614611
0.049331576
0.078423806
0.03834305
-0.0035885468
0.026182529
0.052783467
0.08872478
0.10249091
0.062017325
0.0976807
0.08291064
0.004454643
-0.07385458
-0.07036865
-0.0678033
-0.024583472
0.00868174
0.0039037943
0.041292634
0.037187956
0.19751455
0.12280195
0.09306811
0.06741731
0.20442301
0.11547551
0.07971046
0.031020638
0.09940089
0.11974504
0.001397805
0.07135963
0.093842536
0.068631105
0.07072627
0.112575434
0.025289023
0.0811463
-0.057725117
0.042224545
0.05343302
-0.11062062
-0.090245195
-0.05265285
-0.01536113
0.0069693257
0.04764844
0.06749448
0.18672834
0.13737679
0.048589244
0.08477714
0.06391218
0.051057305
0.04930628
-0.031782568
0.044556376
0.15061487
0.047916017
0.16778137
0.10448236
0.096968666
0.1381341
0.08968884
0.08423909
-0.010553769
0.062269475
0.05846082
-0.027236931
-0.0413412
-0.06263102
0.0026694841
0.08138759
0.0015645513
0.047866963
0.15694216
0.1585543
0.11273103
0.09072884
0.052228086
-0.008462954
-0.03158589
0.03880148
0.002749923
-0.04531191
-0.053252082
0.042702526
0.09929014
0.15333968
0.1775642
0.07697551
0.10246607
0.11099823
0.16501881
0.09797899
0.06844226
-0.090827696
-0.09256527
-0.031117018
-0.0063643986
-0.0113825025
-0.005919297
0.06919603
0.25296354
0.18315434
0.16037184
0.030178383
-0.008929547
0.04154457
-0.038544465
0.05579317
0.099531025
0.03405029
-0.021797625
0.030248955
0.13041548
0.11149779
0.1377441
0.120725185
0.14395332
0.07808749
0.10221439
0.058679823
0.07490547
-0.11092212
-0.1423732
-0.062214915
-0.032512754
0.02565003
0.0047604027
0.042344447
0.26168174
0.31374347
0.16097979
-0.0023363566
-0.0048493776
0.1024346
0.16317984
-0.028904557
-0.051936977
0.03508516
-0.23236614
-0.3138584
-0.04579131
0.13718507
0.14015579
0.09485202
0.1246538
-0.023876557
-0.030891454
0.029539289
0.100607656
-0.105731845
-0.17027885
0.027039599
0.0047411146
0.0038562678
0.012127182
0.021399442
0.19412883
0.24118869
0.13198249
0.060779266
0.08579842
0.022913132
-0.024052484
-0.07831922
-0.02308783
-0.09579099
-0.3608794
-0.32971147
-0.028438877
0.03528119
0.062288836
0.025146736
-0.034589436
-0.073270686
0.076048724
0.06421683
-0.016250065
-0.10022563
0.0065284926
0.03290107
-0.00873472
0.018449847
-0.010342049
0.04199752
0.13399978
0.11929625
0.060074646
0.073042035
-0.057442248
-0.05229752
-0.040722113
-0.08097018
-0.045672324
-0.14958291
-0.31674564
-0.17153625
-0.05860357
-0.05983919
0.01718103
0.065115295
0.14692165
0.18773575
0.111309014
-0.034892045
0.041794583
0.1318639
-0.046627633
-0.09226858
0.023319244
-0.028589725
0.025639359
0.03195969
-0.0038473392
0.08980009
-0.008789815
-0.08102574
-0.042139415
-0.07566862
-0.14360124
-0.11763921
-0.057383966
-0.17661157
-0.22022212
-0.09927603
-0.13792397
0.0107965125
-0.059627537
0.15065315
0.16106576
0.05901671
0.12052065
0.11322236
0.12274103
0.08079985
-0.121999584
-0.16115573
-0.02740253
-0.0018943339
0.006672712
0.011933939
0.016191252
-0.07125909
0.009831998
-0.094412886
0.019628514
0.055727616
-0.034050398
-0.05740564
-0.16521797
-0.26361325
-0.068885095
-0.046996497
-0.13733388
0.037123688
-0.0037795391
0.10748666
0.040095627
0.07159364
0.07446227
0.041322026
-0.055584688
-0.0817421
-0.12626664
-0.12190591
-0.022444505
0.023410492
0.032554995
-0.02403335
0.013356619
-0.111428656
0.07128326
-0.014259466
-0.06559883
-0.07054282
-0.066222996
-0.07451757
-0.20141146
-0.10852278
-0.011573471
0.010812867
0.030706057
0.013772127
-0.028332142
-0.048807267
0.03294926
-0.048067767
0.055994842
-0.055635672
0.0013373393
-0.0086606005
0.056974903
0.011144489
-0.00572553
-0.0046347296
0.030531552
0.021093508
0.02785502
-0.033974472
0.0006156337
0.036046386
-0.2140061
-0.17744797
-0.13100185
-0.105038285
-0.13567464
-0.06807651
-0.059080232
-0.009474939
-0.03889773
-0.0019165582
-0.059566572
-0.029916143
-0.01498773
-0.008259994
-0.037377905
-0.0057837213
-0.05580317
-0.21587287
-0.107193306
0.0049825944
0.028324433
0.027900862
0.015722172
0.036603376
0.057521492
-0.057443798
0.0024815088
-0.065423995
-0.1431984
-0.16797133
-0.07889271
-0.07907065
-0.19421753
-0.11755678
-0.06252921
-0.035956368
-0.0039768773
-0.07512792
-0.11765323
-0.10104547
-0.14558351
-0.05690336
-0.052660994
-0.13286938
-0.20848371
-0.2560099
-0.023872305
-0.057597566
-0.013158499
0.02601538
0.014600402
-0.027924463
0.0177496
-0.076811425
-0.19967192
-0.18772484
-0.2384797
-0.20503378
-0.077638716
-0.14709896
-0.117259525
-0.08390932
-0.0008967125
-0.016639784
0.0029000929
-0.0804225
-0.15023553
-0.19200411
-0.27316594
-0.15530995
-0.26303777
-0.19536918
-0.28653455
-0.15566257
-0.042443093
-0.021888897
-0.0021600856
-0.0048730364
0.015010957
0.022968778
-0.022987451
-0.11489159
-0.1901269
-0.17268991
-0.1890478
-0.23436798
-0.062313516
-0.10044183
-0.0628897
-0.07863731
-0.015132738
-0.07170426
-0.09515753
-0.07115846
-0.038230345
-0.11158199
-0.17674786
-0.16839881
-0.17379293
-0.17394659
-0.30152044
-0.20034623
0.01588854
-0.008001213
0.008351177
-0.025738461
0.010122819
0.025993316
-0.06700497
-0.15687977
-0.1468886
-0.052714735
-0.057301387
0.019761182
-0.01319637
-0.078409754
0.0053506335
-0.11684842
-0.004049659
-0.11774046
-0.029393164
-0.05846789
-0.011712968
-0.104556516
-0.1102561
-0.07763319
-0.1871415
-0.22278596
-0.2111576
-0.22775206
0.0004861014
-0.034561485
-0.00394861
0.010181688
0.029109634
-0.020953994
-0.074975096
-0.1382809
0.0023961468
0.027470686
0.053345155
0.13036366
-0.16210152
-0.123808935
-0.06743334
-0.11048395
-0.108176775
-0.09665514
-0.06286447
0.003608812
-0.08421412
-0.05381012
-0.108777605
-0.1923648
-0.23122819
-0.24416067
-0.17794144
-0.24815822
-0.04012045
-0.03855932
0.011880302
-0.01326057
-0.015531438
0.00089288835
-0.016178403
-0.027761705
0.023892833
0.24580415
0.16226178
0.12481348
0.04544257
-0.0142781325
-0.029921642
-0.029174762
-0.04162991
0.017205853
-0.033971187
-0.014429122
-0.06812356
-0.03388818
-0.16057646
-0.097208165
-0.13811398
-0.07619864
-0.15468681
-0.2107105
-0.092614286
-0.019691994
0.019355975
-0.004460896
-0.033104073
0.0010805858
0.030773599
0.009523283
0.111178696
0.033649094
-0.026511146
0.017112084
0.13009235
0.118745215
0.048215922
0.17583583
0.09701782
0.047619537
0.06804916
-0.0071551963
0.03497534
0.041481316
0.07795303
0.070527054
-0.041134544
-0.0013851502
0.023194404
-0.02977214
-0.024794124
0.019545246
-0.0027919216
-0.0067423973
-0.026399665
0.016970282
-0.01919817
0.026477769
-0.05432203
-0.1370938
-0.058076967
0.07516793
0.08569809
0.1349459
0.11360937
0.076126486
0.028492939
0.16581821
0.18323037
0.19685103
0.1361443
0.17820525
0.1673178
0.18517816
-0.0330304
0.062451832
0.045867395
0.0186445
0.0336067
0.010542838
0.009330143
-0.018276162
0.012276588
0.030756945
-0.029350348
0.03179571
-0.015042561
0.017371504
0.027891299
0.005703145
-0.0063495925
-0.0142393485
0.058147192
0.018877948
0.014458612
0.14062135
0.13636775
0.052662928
0.07693771
0.13860261
0.13738418
0.12615731
0.04439736
0.094434686
0.06389313
0.034348458
0.006445841
-0.031148255
0.03288155
0.013194754
0.013237233
0.015032137
0.0068077603
-0.02314925
0.017199297
-0.0018970226
-0.022219064
0.015752777
-0.0058444585
0.0017907141
0.019027
0.022715112
-0.0073708007
-0.003487648
-0.0022076375
0.012628187
0.008923975
0.017942956
-0.015355791
-0.021262424
-0.012878809
0.016212102
0.024380596
-0.019807313
0.013732867
0.029912716
0.020748556
-0.0015125523
-0.0112644
0.030361826
0.0074709123
-0.017940618
0.0033282347
-0.024537668
-0.023803808
0.025680471
0.0141916275
-0.029893115
-0.011121956
-0.008605512
-0.022745913
-0.025145423
0.014584844
0.01647399
-0.020074613
-0.040530358
0.021084832
-0.02729635
-0.0077908984
-0.023227766
-0.018861873
0.01880263
0.02449235
-0.021841278
0.022137312
-0.025981871
-0.033984274
0.0049687815
-0.0069087474
0.013843644
0.02110587
-0.017846769
0.002522196
0.007662515
-0.005153841
-0.016511103
-0.005994068
-0.051974766
-0.029970605
-0.059626568
-0.07339186
-0.014512548
-0.078094065
-0.05291431
0.022144109
-0.058371663
-0.020783516
0.014684346
0.003940302
0.010527089
0.0052307216
-0.008535854
0.02298647
0.025677193
-0.008120885
-0.016521975
-0.02000734
-0.000870584
-0.032189764
-0.03758447
-0.04343493
-0.0011789569
-0.012863926
-0.0017783212
-0.012747431
-0.035574432
-0.024324918
0.004540053
-0.060346857
-0.013192528
-0.061663162
-0.008179837
0.023835687
-0.082834505
-0.055316232
0.007875678
0.063918285
0.039757695
-0.027778693
0.022410272
-0.024088018
0.028264934
-0.01207511
0.027417919
-0.029567877
-0.016278088
0.024157126
-0.03223185
-0.06397676
-0.023647714
0.0011878117
0.105589315
0.05199943
0.052729487
0.11144594
0.012057667
0.10015017
0.084947415
0.10063819
0.06252871
0.0024485276
0.042072993
0.109967716
0.019577827
0.061825745
0.022547742
0.10598685
0.06262931
0.051000174
0.013718598
-0.009208197
0.023638891
-0.034555666
-0.02445422
-0.07055236
-0.09019701
-0.07084145
0.029898526
-0.04878849
0.049229026
-0.07355258
0.06946385
0.06953587
0.022361625
0.061342336
0.04027654
0.04097118
0.10074128
-0.039894197
0.032822974
0.06059167
0.03030985
-0.057379484
-0.0534225
0.020490555
0.12138566
0.021085015
-0.008061652
0.024109641
0.004088344
-0.013126939
-0.05121267
-0.0838762
-0.073543765
-0.06831698
0.0050006947
-0.0071861413
-0.042970642
-0.0011219358
-0.021816883
0.10088573
0.036142904
0.006048527
0.08741554
0.018267646
0.038877156
-0.04155526
0.09110491
0.02173069
-0.008496734
-0.02924657
0.07111797
0.033422638
0.13203074
0.009295025
-0.046552595
-0.017620394
-0.012811402
-0.036487877
-0.05138977
-0.004799444
-0.0032012174
-0.07424511
-0.014049362
0.06606511
-0.025653977
0.005068232
-0.052333876
-0.04574442
-0.011845209
-0.09900154
0.0742505
0.0070169168
-0.06344776
0.044709228
0.0144409835
-0.0015695716
0.056799978
0.0077436515
0.11401826
0.086227216
0.043546904
0.024360579
-0.03555151
-0.010927894
0.00016660476
0.015300718
-0.0055573615
-0.020988168
0.025782393
0.09273334
0.05405007
-0.005510937
0.061003383
0.021727256
-0.0025152375
0.052691635
0.07535435
-0.038975023
-0.033142854
0.04581558
-0.014449653
0.044690657
0.04013291
0.011462442
0.0446022
0.014485995
0.021501033
0.23791584
0.10123463
0.12559612
0.0222359
-0.0033466055
-0.004025343
-0.023752151
-0.016121773
-0.008842931
0.015433549
0.04584533
0.031449158
0.073808365
0.046061467
0.025210837
0.04644603
0.0061079455
0.011758925
-0.078095205
-0.14352116
-0.047121562
-0.001340931
-0.019300016
0.024255987
0.024160122
0.051512573
0.03143214
0.08489868
0.09584737
0.14882483
0.110682786
-0.008213362
0.0061777197
0.02774839
0.0068071266
-0.06821583
0.08815748
-0.009443335
0.042209078
0.031148888
0.029230263
0.06112038
0.1085414
0.059230134
0.07108722
0.009218184
-0.002360723
-0.14358485
-0.07310082
-0.07110159
0.026759509
0.08597973
0.06282135
0.045024626
0.07120035
0.080459096
-0.059496656
-0.04258696
0.048287902
0.019256216
0.015327056
0.018602738
-0.003782145
-0.03802568
0.07583919
0.02818961
0.051248223
0.13030994
0.09031131
0.10004037
0.056117743
0.046278644
0.05690869
0.05762232
0.15384369
-0.027840769
-0.06701169
-0.03422816
-0.041514814
-0.0049443124
-0.03138062
-0.009193589
0.064193815
0.12495485
0.09869343
0.02278512
0.10461699
-0.009460915
-0.035084255
0.013666142
0.0066653653
0.06262829
0.014359714
0.14012818
-0.018280765
0.036457676
-0.0151949795
0.0428271
-0.08096496
-0.02855957
0.02740341
0.10196931
0.06471691
0.010019233
0.005387395
0.0011576285
-0.022966314
0.059915803
0.085486755
0.10388817
0.078082375
0.25416756
0.29903856
0.03180747
0.00052494195
0.015356198
-0.011005046
0.015795527
0.027187496
0.037138246
-0.056546602
0.001425489
-0.008677802
-0.01303458
-0.040669866
-0.0032679879
-0.05493727
0.016835244
0.079900965
0.13174896
0.008374054
0.091426164
0.051857486
-0.06499347
-0.010296508
0.0015351396
0.07395695
-0.055848964
0.026977327
0.08468549
0.12260093
0.032974456
-0.05545255
-0.018075174
0.0044089127
-0.035957713
0.026924582
-0.0006242076
-0.13333221
-0.0010160776
-0.016464673
-0.16423267
-0.123616986
-0.07281322
-0.0321154
0.098211415
0.06408753
0.10484079
0.07051485
0.03353371
-0.0011968041
-0.020206483
-0.03642397
0.017967517
-0.12536608
-0.05029704
-0.20796683
-0.15441966
-0.11339009
0.08621913
0.014658369
-0.03649527
-0.021011649
-0.01975769
0.014054741
-0.01506367
-0.09413015
-0.15628316
-0.11728558
-0.07829439
-0.09705467
-0.005720851
-0.019238953
-0.038576234
0.05665999
0.11047977
0.11176385
0.018990079
-0.048403643
-0.026815727
-0.023301004
-0.040272366
-0.100522906
-0.06355949
-0.053736433
-0.1173061
-0.18077925
0.03629435
-0.050882842
0.017983971
-0.01235145
0.027595961
-0.028300129
-0.01712254
-0.09856748
-0.13420683
-0.08645992
0.006041551
0.0041107945
-0.032502953
0.030106625
0.014711482
0.09916332
0.04589904
0.03220838
0.016498834
0.041112807
-0.027488464
-0.058149435
-0.12758608
-0.12713663
-0.14994532
-0.16343865
0.0068492326
-0.09898241
-0.05682496
-0.013807605
0.020798508
0.016582953
-0.018826662
-0.042644545
-0.009730409
-0.05345346
-0.09476505
-0.031895332
0.05028189
0.029570628
0.055800326
0.014626358
0.06454415
0.10110391
0.06592027
-0.007207382
-0.04878355
0.039864194
-0.052204646
-0.11694667
-0.02651455
-0.029729325
-0.02943174
-0.07321989
0.07470532
0.041227005
-0.15399157
-0.019822616
-0.022272851
0.016997866
0.010912853
-0.020856027
-0.10524199
-0.13814427
-0.030811027
-0.00825412
-0.036615837
-0.018975303
0.09185779
0.07445159
0.07559868
0.04927904
0.026359554
-0.03741805
-0.009009731
-0.036001474
-0.077062994
-0.037469424
-0.023743823
0.012598039
-0.07310032
-0.0007677905
0.050435286
-0.02680304
-0.12214059
-0.01517013
0.0026146572
0.019502668
-0.01086159
-0.033183075
-0.13058496
-0.10241831
0.05199404
-0.014970346
-0.05949121
0.009847922
0.049123168
0.03713856
-0.021755833
9.681461e-05
-0.056870196
-0.05675498
-0.019496448
0.0023309425
0.0091699045
0.029753609
-0.007778573
-0.011678043
-0.0784259
0.087707184
0.11762612
-0.04685205
-0.123586714
-0.00087998266
0.021156553
0.026306173
-0.008440323
-0.018410072
-0.11811194
-0.095467836
-0.031676967
-0.000738851
0.080481954
-0.008573816
-0.050825477
0.063958116
-0.07526368
0.01523809
0.026548656
-0.06458183
0.011721245
-0.058902446
-0.018378412
-0.0123263765
0.01295785
0.02378089
0.09967277
0.05460916
0.09672005
-0.09731407
-0.0844348
0.008911296
0.004320769
-0.03966129
-0.037275318
-0.043374635
-0.072822176
-0.060488433
-0.02571075
0.043018226
0.08950584
-0.01661318
0.04129148
-0.0551132
-0.024687188
-0.047298092
0.0114706
-0.015870927
0.011534872
-0.069225684
0.027584694
-0.04776973
-0.024486585
0.038686126
-0.006388485
0.04840987
-0.0038467774
-0.14413662
-0.069233924
-0.0452938
-0.0033439773
0.015864199
-0.009558051
0.006959931
-0.043356605
0.03305533
-0.012469274
0.041767545
0.032261804
-0.037151754
-0.019606955
-0.0013201288
0.044822544
0.028371483
0.051196113
0.040793825
0.017502772
-0.032094635
0.008317428
0.01844982
-0.042308334
-0.068923995
0.02787805
-0.005144533
0.047580287
-0.021706581
-0.04681233
0.004467236
0.01750326
-0.02196875
-0.026782101
0.010732642
-0.035082277
-0.023345709
-0.1045392
-0.120975375
-0.063486665
0.05694027
0.008741122
-0.043447856
0.031693183
0.053511243
0.119511604
0.057820156
0.053619534
0.07699931
0.015088219
0.044595852
0.066893615
0.01459511
0.06642624
-0.00049294485
0.0808705
-0.06833679
-0.04694041
0.015853705
-0.013614981
-0.01016144
-0.0063634682
0.02071857
-0.074860044
-0.1383512
-0.16080797
-0.13130036
-0.09496169
0.07038969
0.0004965399
0.02246824
0.10556801
0.099175006
0.06276864
0.033963233
0.10582662
0.13978273
-0.05735843
0.057696894
0.21200687
0.07621745
-0.044387206
-0.06794957
0.0043931967
-0.05941772
-0.008198088
0.020318814
-0.010753874
-0.0063362373
0.0055103498
0.018251626
0.0030952496
-0.06086219
-0.13335305
-0.05831174
-0.010907611
-0.09904704
-0.09305011
0.06541188
-0.010996726
-0.025062874
-0.06302729
0.085430965
0.06647449
0.09935787
0.104862496
0.033299007
0.08102848
0.028760767
-0.059536528
-0.064686574
-0.00788617
0.0018156851
-0.042453166
-0.01770503
-0.008677579
-0.023068665
-0.00040694233
-0.021835968
-0.010791811
-0.004518859
0.0076493192
-0.06203096
-0.011111898
-0.04836999
-0.07288353
-0.097330265
-0.07068443
-0.056497823
-0.057322815
-0.093200296
-0.15689565
-0.11276124
-0.021611424
-0.04145811
-0.10531147
-0.06329026
-0.010113641
0.0020787916
-0.0045834985
0.016178492
0.028074075
-0.0015128675
0.021749392
0.029093532
0.025956195
0.030799944
-0.030996006
-0.023082912
-0.019619614
0.0047872914
-0.004141564
-0.0061865235
0.005010738
-0.031812806
0.028933419
-0.046231166
0.009045823
0.018876115
0.004283629
0.024354804
0.023108503
-0.0032075448
0.010581187
-0.017047524
0.009173915
0.0148911085
0.019007716
-0.029132076
0.02072312
-0.008709195
0.02065358
0.04800759
0.016588638
-0.0006414178
0.011574812
0.034240104
0.04088489
-0.0054203165
-0.013309236
-0.011946645
0.031550143
0.03927286
0.048118405
0.011687963
0.02711627
0.02302453
0.0120198475
-0.009627768
0.021656245
0.0045599537
0.04654231
0.044830166
0.042582307
0.04404492
0.014649981
0.015866105
0.040527645
-0.012422416
0.034940176
0.041477244
0.015603802
0.026453674
-0.010212968
0.04878647
0.011285245
-0.01005666
-0.0062483433
0.010409201
0.014955794
-0.0041975304
-0.0024107313
0.028315097
-0.00085446896
-0.01270135
0.025587061
-0.0022926603
0.012670354
-0.009863498
-0.013310298
0.016802205
0.016816264
-0.011321464
-0.0053722574
0.022146352
0.026306175
0.020586781
0.028107876
-0.017213427
0.013394556
0.045629833
-0.0015581035
0.02570361
0.027387468
-0.004551983
0.040231112
0.038050577
0.04991858
0.039090905
0.0032089187
0.025081359
0.0007059897
-0.027665293
-0.026098944
-0.03476161
-0.010320813
-0.0360428
-0.01033128
-0.023356907
0.028889472
-0.018552009
0.020779856
0.0005390212
0.015773932
0.03737951
0.027174233
-0.017785965
-0.0077440687
-0.0023052176
0.027685031
0.015050883
0.01596467
0.04255494
-0.0061448235
-0.010360574
0.022280486
0.013112051
-0.011806775
-0.035660136
-0.11747275
-0.13572088
-0.123721175
-0.10310369
-0.09665269
-0.044413384
-0.022381704
-0.022694657
-0.039735507
-0.012988462
0.037815906
-0.016510652
0.023169208
0.036786005
0.019804286
0.018352084
0.035793923
0.03208417
0.014363894
0.0029612617
-0.003527318
0.025545213
0.014424074
-0.01024247
-0.07011639
-0.116937816
-0.112580344
-0.13432282
-0.13416232
-0.12721846
-0.15243436
-0.20160094
-0.14355636
-0.16896494
-0.17905831
-0.15774341
-0.11560217
-0.032694254
-0.0045433273
-0.013709407
0.012058396
-0.009007715
0.030064322
0.035631407
0.027497143
-0.016271988
-0.0021674754
0.0061482606
0.017189188
-0.04045273
-0.054688163
-0.09587223
-0.12538601
-0.08924019
0.11591484
0.025562435
0.066191204
-0.057007246
-0.018856524
-0.121275626
-0.115109175
-0.064828254
-0.09431019
-0.08350282
-0.09103636
-0.20147459
-0.14166921
-0.024447564
-0.017472414
0.034442294
-0.0012727898
0.025113894
0.023727214
0.00030845875
0.0021038505
-0.014288675
-0.13211355
-0.14517163
-0.14034474
-0.04303436
0.031562097
-0.006267598
0.044047784
0.044696663
0.11418654
0.10669016
0.07625328
0.109810166
0.107095316
0.11549018
0.04331653
0.044513043
-0.027276423
-0.08863996
-0.14006583
-0.10886516
-0.027064292
0.022905815
-0.003967269
0.047572143
-0.00078540284
0.026129952
-0.0046263817
-0.1581753
-0.17267172
-0.084988445
-0.098926045
-0.02084291
-0.026365735
-0.016490648
0.03270416
0.10673285
0.1466944
0.13965161
0.15577205
0.1283919
0.07931519
0.016686281
0.022636252
0.036038294
0.035151727
-0.081265114
-0.072749816
-0.09995225
-0.09008646
-0.001282843
-0.012168524
0.016765775
0.033930045
0.015700253
-0.10392408
-0.14123917
-0.11275634
0.010899208
-0.114299715
0.07459275
-0.04453978
-0.035385277
-0.035959233
-0.095508955
0.060315046
0.0858311
0.06965105
0.046752363
0.010138128
0.045739926
0.012257714
-0.038961332
0.045785654
-0.01824112
-0.066403136
-0.045980446
-0.08564424
-0.053170104
-0.0042582657
-0.014733269
0.015647411
-0.045966033
-0.076077744
-0.10138759
-0.0034195916
0.070595235
-0.0019856691
0.0335699
0.008257509
0.05147441
0.023189362
0.002621461
0.030863607
0.04121565
0.096412964
-0.025596285
-0.022481615
0.019432116
-0.01992058
0.025165446
-0.10200027
-0.046283122
-0.108302265
-0.08540365
-0.10584657
-0.007777834
0.0033668596
0.003832418
-0.011368782
-0.070675336
-0.07045767
-0.07224873
0.015372871
0.0660716
-0.023187598
0.03226245
0.01011323
0.04221052
0.04459284
0.048137
-0.105912305
-0.024033595
-0.038970366
0.010850123
-0.015858894
0.022775987
0.020291971
0.017985549
-0.0080981655
-0.022497231
-0.06930846
-0.15594397
-0.024248539
-0.03499732
0.03755985
0.018930217
0.005716782
-0.07462465
-0.1116192
-0.047810543
0.04558906
0.052199405
0.047828373
0.14732155
0.07828822
0.09005628
0.09057481
0.048854627
0.0015604913
0.007309027
0.04472334
0.071467035
0.1331667
0.09686165
0.046338614
0.15713449
0.083644025
0.088323645
-0.03860497
-0.12823372
-0.043426927
-0.029268743
0.030038761
0.001998299
-0.008017751
-0.0561639
-0.07099884
0.121393144
0.10598735
0.119213
0.054636613
0.083461456
0.082905255
0.0447854
0.080012426
-0.10794357
-0.010608991
0.030845871
0.1181289
0.09192524
0.10238561
0.101353236
0.107055336
0.08553694
0.12774953
0.107153796
0.17759463
-0.17084636
-0.08782202
0.018836452
0.039489597
0.0139545435
0.010610249
-0.07269916
-0.02554712
0.21668029
0.14152578
0.039363407
0.073468484
0.071426764
-0.00397942
0.02797153
-0.03272341
-0.09454241
0.015528965
0.07145751
0.09276716
0.11860947
0.071522295
0.06959296
0.14881642
0.075045645
0.10111225
0.049099218
-0.10013377
-0.24617946
-0.1333918
-0.046347234
-0.0021832073
0.047185812
-0.023049437
0.0026914969
0.03104962
0.13900122
0.003695585
0.06683224
0.025252147
-0.040949225
-0.010095058
0.027928295
-0.03437283
-0.03131876
0.04125915
-0.0060885125
0.062285654
0.09272991
0.10169352
0.036106013
0.03902783
0.060294233
0.050543632
0.01912344
-0.20802946
-0.2862697
-0.036608823
0.027552634
0.023694519
0.005152599
0.03881517
-0.045740433
0.016210184
0.05030044
-0.007994304
0.0001790038
-0.008829904
0.021249818
-0.03787872
0.020296542
0.013326948
-0.061611664
-0.03205092
-0.087870255
0.050807744
0.09618727
0.07892577
0.024166495
0.029746117
0.017625876
-0.04200093
-0.03077036
-0.18980737
-0.25686213
-0.04698678
-0.0187037
-0.0058089443
0.051171374
0.026785316
0.011619847
-0.028306296
0.029522574
0.03373982
-0.065930426
-0.020780671
0.06436742
-0.1048074
0.012400417
0.023485314
-0.03945862
-0.08807031
-0.057110153
0.009006442
0.056563105
0.052427426
0.0367893
-0.07017276
-0.028611027
-0.14984033
0.0070053283
-0.2237144
-0.24252495
-0.04763464
-0.01714708
0.045015246
0.03859229
0.048311036
-0.02208269
-0.08074413
-0.107244916
-0.08577515
-0.087404884
0.017083047
0.023004584
-0.011389642
-0.012213176
-0.025676176
0.00487375
0.00557863
-0.030139614
0.07833368
0.003123996
0.01202445
-0.006545991
-0.07295817
-0.014011339
-0.08464631
-0.09861839
-0.20216815
-0.20302247
-0.013387218
-0.012661793
0.0478648
0.020239512
-0.010390376
0.0027163064
-0.1058231
-0.17625697
-0.1923399
-0.018585842
-0.019566195
-0.1123768
-0.045781508
0.09390758
0.059499282
-0.1277331
-0.07751908
0.044883884
0.042045556
-0.023016784
-0.012179919
-0.047712907
-0.0072518573
0.0024707692
-0.047655333
-0.08105785
-0.22582728
-0.18692416
-0.03145382
0.0034729058
0.048612192
-0.01660269
-0.01658423
-0.013183632
-0.068969384
-0.15992321
-0.0868792
-0.049226258
0.024281098
-0.05563665
-0.11435453
-0.08497561
-0.123336904
-0.06297341
-0.06471131
-0.06935313
-0.07469577
-0.04326726
-0.08389753
-0.05299834
-0.0138709545
0.014007349
-0.13402002
-0.1450007
-0.11203404
-0.044992782
-0.030308682
-0.03050007
0.014896287
0.04147328
0.023463704
0.017117389
-0.09236287
-0.09638374
-0.00102025
-0.09326421
-0.18494755
-0.09503768
-0.17669393
-0.18668166
-0.20604813
-0.20212
-0.0746737
-0.10629059
-0.09520419
-0.034458566
-0.066417895
-0.11377049
-0.042564448
-0.10830295
-0.16113813
-0.08867815
-0.029059123
0.086865045
0.06566984
0.0018810555
-0.005810665
-0.015588247
0.021371497
-0.005030283
-0.002972135
-0.05929349
-0.015526161
-0.024599591
-0.094925575
-0.082675524
-0.045993134
-0.0950419
-0.13569972
-0.090876825
-0.13021713
-0.10443219
-0.10575977
-0.059955772
-0.12575231
-0.10505842
-0.09708585
-0.08730978
-0.01544694
-0.14578673
-0.042570006
0.09721857
-0.011015286
-0.029187936
-0.009364959
-0.011182673
0.013975288
-0.021377483
0.0072033955
-0.05364763
-0.108172506
-0.06435636
-0.0986635
0.035295118
-0.043112602
0.05257957
-0.015649049
-0.0010417312
-0.06682081
-0.007113255
-0.097358294
-0.06122316
-0.057604477
-0.11217665
-0.16244501
-0.05874647
-0.058503658
-0.023923403
0.068200275
0.09561126
0.03256115
-0.0148156835
-0.0023925058
0.005994255
-0.0009874543
0.022569748
0.004347743
-0.09820282
-0.10110783
-0.16417933
-0.06846767
-0.0061830496
-0.1488859
-0.049917895
-0.06727156
-0.0344132
-0.031403113
0.00981399
-0.075334266
-0.054954235
-0.04938249
-0.03003389
-0.051005717
0.020234754
0.030116295
0.13378535
0.10028389
0.07742152
0.023390258
-0.019889044
0.0089113815
0.04492025
-0.008336025
0.026486317
-0.004587145
0.0011994018
0.03515453
0.04357442
0.058510024
0.031477816
-0.06915977
0.028768694
-0.03884632
-0.050892245
-0.11730147
-0.13987549
-0.019384854
-0.028008642
0.0028825016
-0.015731541
0.026358658
0.07253359
0.096814625
0.12441084
0.1285089
-0.049446594
-0.03625735
-0.0063307853
0.0411382
0.006836349
0.047103986
-0.011857254
-0.02159396
0.049241472
0.21016987
0.106773935
0.069262564
0.14921571
0.035543848
0.10021801
0.035288535
0.061323207
0.052659858
0.12003888
0.00727626
0.07162407
0.061187826
0.09591018
0.124104775
0.21173935
0.19646691
-0.0054569743
0.030522257
0.010669166
-0.011616892
0.03771045
0.020505825
-0.0151354065
0.03703197
0.03721606
0.008624814
0.058937907
0.1017332
0.24374577
0.1955393
0.18689285
0.24550825
0.20073931
0.16583778
0.2437183
0.20324829
0.33772117
0.17165612
0.18464036
0.20478477
0.25087723
0.1346247
0.13759263
0.12405234
0.06562532
0.05437954
0.0051950077
0.005858499
-0.003876299
0.025656862
-0.0069436366
0.026076373
0.014605516
0.013706
0.0068080104
-0.010571241
-0.0060687903
0.07269302
0.033266734
0.023337668
-0.006495432
0.0050603463
0.006293172
-0.06479508
0.018987471
0.020811055
0.0090794545
-0.06845925
0.016688356
-0.03693225
0.030449806
-0.021506209
0.029083276
0.027564906
0.051159974
0.024555022
0.021434186
-0.0072245444
